<?xml version="1.0"?>
<opencv_storage>
<opencv_ml_svm>
  <format>3</format>
  <svmType>C_SVC</svmType>
  <kernel>
    <type>RBF</type>
    <gamma>5.0624999999999998e-01</gamma></kernel>
  <C>1.2500000000000000e+01</C>
  <term_criteria><epsilon>1.1920928955078125e-07</epsilon>
    <iterations>1000</iterations></term_criteria>
  <var_count>324</var_count>
  <class_count>3</class_count>
  <class_labels type_id="opencv-matrix">
    <rows>3</rows>
    <cols>1</cols>
    <dt>i</dt>
    <data>
      0 1 2</data></class_labels>
  <sv_total>459</sv_total>
  <support_vectors>
    <_>
      1.24047861e-01 5.07173911e-02 1.47964850e-01 1.59594417e-01
      1.31041542e-01 9.72958580e-02 1.13231570e-01 8.75631869e-02
      1.34626552e-01 1.69200793e-01 1.30932376e-01 1.76918477e-01
      8.72998610e-02 1.92181811e-01 1.15485191e-01 1.70141727e-01
      1.40791982e-01 1.48603126e-01 1.79472759e-01 8.05314854e-02
      1.85465589e-01 1.91365093e-01 1.43833473e-01 1.26340479e-01
      9.01984945e-02 1.21117935e-01 2.13586822e-01 2.36182094e-01
      2.36182094e-01 2.36182094e-01 1.64911017e-01 1.94752797e-01
      2.15966806e-01 2.36182094e-01 2.36182094e-01 2.36182094e-01
      1.37730807e-01 9.55110565e-02 1.07599899e-01 2.65161023e-02
      8.70639607e-02 1.39756843e-01 2.01527596e-01 1.72548488e-01
      1.52793646e-01 1.48707226e-01 7.36093000e-02 1.75147519e-01
      6.86226189e-02 1.32358178e-01 1.74844861e-01 1.84477970e-01
      1.43542826e-01 1.93410158e-01 2.30027080e-01 2.30027080e-01
      1.99883148e-01 8.74715149e-02 1.70082882e-01 2.09704950e-01
      2.30027080e-01 2.30027080e-01 2.08249435e-01 1.77672818e-01
      6.08608797e-02 1.07063159e-01 6.06386177e-02 2.04928562e-01
      2.01073349e-01 2.30027080e-01 1.93011001e-01 1.86822131e-01
      6.58654571e-02 8.40195641e-02 1.44162670e-01 9.15379077e-02
      2.00197741e-01 2.16409475e-01 2.16409475e-01 1.73972756e-01
      1.85454220e-01 8.44242424e-02 8.82121474e-02 9.52918380e-02
      9.56215188e-02 1.46282092e-01 1.97021991e-01 2.12945610e-01
      1.37071893e-01 2.16409475e-01 8.92836079e-02 9.44458917e-02
      8.23903903e-02 7.65999630e-02 2.16006368e-01 2.16409475e-01
      2.16409475e-01 2.16409475e-01 2.16409475e-01 2.16409475e-01
      1.56748489e-01 9.65249985e-02 1.43031478e-01 1.42003387e-01
      2.16409475e-01 2.16409475e-01 1.70807302e-01 2.16409475e-01
      1.13610186e-01 3.93527783e-02 7.18365908e-02 9.47234631e-02
      1.89427987e-01 1.33463264e-01 5.16062118e-02 7.79598504e-02
      1.44588500e-01 2.72395253e-01 2.21053079e-01 2.11379737e-01
      1.27601027e-01 2.72395253e-01 2.72395253e-01 1.70565337e-01
      1.66354597e-01 2.72395253e-01 1.03503697e-01 4.38091606e-02
      5.98422587e-02 6.37221858e-02 1.63266107e-01 6.81057423e-02
      4.00321335e-02 4.45472412e-02 8.48042667e-02 2.72395253e-01
      6.67090192e-02 7.54993111e-02 5.80666922e-02 2.72395253e-01
      2.71272808e-01 1.35946780e-01 1.77253857e-01 2.72395253e-01
      2.61487722e-01 1.17043458e-01 1.16039552e-01 8.38954970e-02
      2.97724813e-01 1.50522962e-01 1.69126689e-01 1.34744629e-01
      1.86276823e-01 2.34571829e-01 2.89191920e-02 3.41380611e-02
      4.19414528e-02 1.36475578e-01 7.93793648e-02 8.39144886e-02
      6.39929771e-02 2.25867227e-01 2.97724813e-01 4.93373461e-02
      4.40891683e-02 3.04641705e-02 2.97724813e-01 1.50524244e-01
      8.44646171e-02 1.42954543e-01 2.97724813e-01 2.97724813e-01
      1.76218942e-01 1.22964464e-01 1.76182743e-02 8.10906887e-02
      4.20768559e-02 1.58195179e-02 4.48516272e-02 2.97724813e-01
      2.39651456e-01 8.27090070e-02 3.88225503e-02 4.14371192e-02
      1.48044229e-01 9.77899134e-02 5.67102134e-02 8.29923227e-02
      2.85893500e-01 2.85893500e-01 1.27654716e-01 5.73170930e-02
      7.44639337e-02 1.11319557e-01 8.33541602e-02 7.37942681e-02
      6.66582882e-02 2.21820638e-01 2.85893500e-01 2.85893500e-01
      1.76093951e-01 3.76385786e-02 2.75692582e-01 7.46327266e-02
      7.72631401e-03 3.34462300e-02 2.85893500e-01 2.85893500e-01
      1.03499360e-01 3.15965042e-02 5.73643260e-02 2.85893500e-01
      5.34357689e-02 1.55291483e-02 3.39255407e-02 2.79155225e-01
      1.31629273e-01 7.47449324e-02 1.12899460e-01 9.20376033e-02
      2.30177194e-01 1.10052392e-01 7.49849677e-02 6.02155291e-02
      1.74206689e-01 2.86782235e-01 9.99178588e-02 1.26894236e-01
      1.60396472e-01 2.86782235e-01 2.86782235e-01 1.59154251e-01
      2.36409828e-01 2.86782235e-01 9.61322039e-02 6.71588257e-02
      5.28573431e-02 4.19801064e-02 1.00599669e-01 7.10730851e-02
      3.48993950e-02 1.45814205e-02 9.78278592e-02 2.86782235e-01
      1.16166539e-01 9.93905291e-02 1.65913314e-01 2.86782235e-01
      1.86163396e-01 8.33318979e-02 5.09066954e-02 2.86782235e-01
      3.13004225e-01 9.63203907e-02 5.35267293e-02 9.05352980e-02
      3.08408171e-01 1.49763003e-01 1.16292454e-01 1.45691514e-01
      3.13004225e-01 3.13004225e-01 2.40618974e-01 1.60976186e-01
      3.26403193e-02 1.16406225e-01 5.08878380e-02 6.23084232e-02
      4.20281701e-02 3.13004225e-01 2.88294971e-01 1.22677051e-01
      8.92318264e-02 1.38358474e-01 1.86020553e-01 9.69030485e-02
      9.33245271e-02 5.45733422e-02 2.35054821e-01 1.73235178e-01
      7.74305463e-02 6.80424795e-02 7.07690567e-02 1.22711949e-01
      5.11015952e-02 7.58333057e-02 3.41070853e-02 1.38774306e-01
      2.99581975e-01 2.99581975e-01 2.89862096e-01 5.27561791e-02
      2.99581975e-01 8.78152400e-02 3.13197896e-02 5.93005978e-02
      2.99581975e-01 2.99581975e-01 1.68175891e-01 7.72131309e-02
      1.20778941e-01 2.99581975e-01 9.41416323e-02 3.07119638e-02
      6.00708760e-02 2.99581975e-01 1.20279647e-01 5.87096810e-02
      6.92233592e-02 5.47922328e-02 1.35296524e-01 5.95263280e-02
      3.76683101e-02 3.50827314e-02 1.34506747e-01 1.71607926e-01
      1.24569789e-01 9.40955579e-02 1.36574104e-01 1.73226759e-01
      5.02870716e-02 3.35735828e-02 4.47705388e-02 1.76244467e-01</_>
    <_>
      1.50357515e-01 1.58140987e-01 1.80312619e-01 1.85322911e-01
      1.57236367e-01 1.09668545e-01 1.98495656e-01 1.35093212e-01
      1.68239161e-01 1.82476059e-01 1.69632792e-01 2.30159119e-01
      2.03242704e-01 1.41449690e-01 1.27098501e-01 1.32205293e-01
      1.81789815e-01 1.42493144e-01 7.18601197e-02 1.93781868e-01
      2.30159119e-01 2.22580612e-01 1.77937001e-01 9.74449888e-02
      9.39515829e-02 7.19669089e-02 6.39249831e-02 8.44988376e-02
      1.90290928e-01 2.30159119e-01 2.30159119e-01 2.23782793e-01
      1.06261916e-01 1.34949416e-01 2.14643031e-01 1.33208886e-01
      2.11618051e-01 1.57146156e-01 2.21555114e-01 2.03644767e-01
      1.62361667e-01 1.20208628e-01 1.06204964e-01 1.95339665e-01
      1.67751774e-01 2.21555114e-01 9.81163979e-02 1.66686073e-01
      1.94946021e-01 1.66311830e-01 1.49291113e-01 6.80809170e-02
      1.02867223e-01 2.21555114e-01 1.60091907e-01 1.37805954e-01
      2.21555114e-01 2.21555114e-01 2.21555114e-01 1.95464507e-01
      1.88835174e-01 2.21555114e-01 1.79763734e-01 1.34417996e-01
      3.35026346e-02 2.11983062e-02 9.94404703e-02 1.63160726e-01
      1.79851994e-01 7.05376491e-02 1.61636129e-01 1.17745019e-01
      2.27453545e-01 1.43651769e-01 1.01523511e-01 1.47722915e-01
      1.86089814e-01 1.84205458e-01 2.27453545e-01 1.50630042e-01
      2.27453545e-01 2.27453545e-01 1.70570031e-01 1.10979743e-01
      1.11612827e-01 2.27453545e-01 1.35288075e-01 2.27453545e-01
      1.97844833e-01 2.27453545e-01 1.29733279e-01 5.14850877e-02
      4.17053476e-02 9.14490223e-02 1.36456534e-01 1.19499810e-01
      1.68831289e-01 8.67158547e-02 1.11840725e-01 1.48912087e-01
      1.05497956e-01 1.19209595e-01 1.63059101e-01 2.27453545e-01
      1.66433081e-01 2.27453545e-01 1.56239465e-01 1.98873863e-01
      5.86678088e-02 9.94491130e-02 2.43120536e-01 1.58383355e-01
      2.83993661e-01 9.51565579e-02 5.62663488e-02 2.98471861e-02
      5.51206172e-02 1.07017629e-01 1.71749860e-01 2.83993661e-01
      2.40968749e-01 2.83993661e-01 1.42855734e-01 1.20217919e-01
      8.95600840e-02 1.43804148e-01 1.01096742e-01 7.51833394e-02
      1.61738366e-01 1.29013792e-01 2.83993661e-01 1.49705216e-01
      1.73119560e-01 6.09727465e-02 7.83198178e-02 1.65604338e-01
      8.59417394e-02 8.93697441e-02 7.13347569e-02 2.83993661e-01
      2.46686533e-01 2.50488937e-01 8.76311734e-02 1.32562146e-01
      1.77182049e-01 1.05827563e-01 1.14450842e-01 1.82214677e-01
      2.85373837e-01 1.99193746e-01 1.37636155e-01 1.29120052e-01
      1.19730331e-01 2.23965585e-01 1.20670229e-01 1.98703445e-02
      7.56786168e-02 1.21527188e-01 1.29472256e-01 4.97203954e-02
      5.24841286e-02 1.01966463e-01 2.85373837e-01 1.82949394e-01
      3.14791463e-02 6.68811351e-02 2.85373837e-01 2.07824916e-01
      2.48621643e-01 7.65085816e-02 2.02443197e-01 2.85373837e-01
      2.85373837e-01 7.39201382e-02 4.25235704e-02 4.23980914e-02
      5.20615727e-02 9.20002833e-02 3.12441122e-02 2.85373837e-01
      2.57861704e-01 1.56737059e-01 4.58811224e-02 4.60133702e-02
      9.91913155e-02 6.20798692e-02 5.31275794e-02 4.79349494e-02
      1.11819774e-01 1.49017230e-01 9.71698761e-02 8.87175947e-02
      9.99232158e-02 2.04877645e-01 1.27322569e-01 1.33816987e-01
      9.41836238e-02 6.61994144e-02 2.88229436e-01 2.88229436e-01
      1.51273727e-01 1.22713916e-01 1.26679152e-01 7.44189769e-02
      1.03739597e-01 1.10739104e-01 2.64299989e-01 2.88229436e-01
      2.75644034e-01 1.57424778e-01 1.48717374e-01 2.88229436e-01
      2.08323389e-01 1.96585596e-01 1.66748434e-01 1.19293243e-01
      2.33327433e-01 2.26808444e-01 1.97911531e-01 9.51498151e-02
      1.38524741e-01 8.91299322e-02 2.19048724e-01 1.56103402e-01
      1.52953699e-01 2.07579613e-01 7.59911761e-02 6.16020672e-02
      4.60546948e-02 2.33327433e-01 1.61167294e-01 2.33327433e-01
      2.33327433e-01 1.64940029e-01 2.33327433e-01 2.33327433e-01
      2.22349048e-01 6.07567057e-02 1.51107460e-02 1.64161772e-02
      1.09599024e-01 1.20429367e-01 1.67921260e-01 2.32575297e-01
      7.68670961e-02 8.28232691e-02 5.46162538e-02 3.96069586e-02
      7.73203894e-02 2.33327433e-01 2.33327433e-01 2.14244485e-01
      2.75268763e-01 2.03189135e-01 2.70582456e-02 3.97017831e-03
      1.93005666e-01 1.15142949e-01 1.87034100e-01 1.46641597e-01
      2.75268763e-01 2.75268763e-01 2.75268763e-01 1.01297043e-01
      3.23801935e-02 1.33568849e-02 2.30875444e-02 5.41097075e-02
      2.57098470e-02 2.75268763e-01 2.75268763e-01 8.41652602e-02
      6.53095916e-02 4.10057828e-02 5.98690026e-02 1.03428431e-01
      1.68003604e-01 1.46442771e-01 2.75268763e-01 2.75268763e-01
      1.31499395e-01 1.44477457e-01 1.13869533e-01 7.93053582e-02
      7.35315979e-02 8.07748660e-02 6.57189637e-02 2.75268763e-01
      2.37176299e-01 2.37176299e-01 1.70563638e-01 1.34679615e-01
      9.28722769e-02 2.88630053e-02 8.00634027e-02 5.78020848e-02
      1.75694793e-01 2.37176299e-01 2.36195132e-01 1.65345833e-01
      1.72834367e-01 2.37176299e-01 9.66759026e-02 1.31520882e-01
      1.29121438e-01 1.13516673e-01 1.66906402e-01 1.27752304e-01
      1.66165978e-01 1.67622596e-01 1.92959905e-01 5.74318245e-02
      9.76142958e-02 9.07899886e-02 1.70238987e-01 1.80257484e-01
      1.32262677e-01 1.69106066e-01 2.37176299e-01 2.37176299e-01
      1.01472609e-01 2.37176299e-01 1.43990070e-01 2.01412126e-01</_>
    <_>
      1.12314977e-01 2.64237344e-01 2.64237344e-01 7.39515126e-02
      1.95383430e-02 3.62743135e-03 2.46008486e-02 7.73258656e-02
      6.44991472e-02 1.95881605e-01 1.85918733e-01 2.08212733e-01
      5.04930913e-02 2.58544181e-02 1.40147898e-02 1.88657880e-01
      2.64237344e-01 1.80186465e-01 1.09533712e-01 2.64237344e-01
      2.64237344e-01 7.26687014e-02 2.64237344e-01 1.62263364e-02
      4.36574668e-02 6.83744103e-02 8.99330005e-02 1.60401240e-01
      1.47567376e-01 1.68873161e-01 9.60294008e-02 2.64237344e-01
      4.47155572e-02 2.64237344e-01 2.64237344e-01 1.80355132e-01
      2.81992525e-01 9.89794284e-02 9.92288664e-02 1.30161736e-02
      6.26548082e-02 4.83723395e-02 2.81992525e-01 2.81992525e-01
      2.81992525e-01 2.22576156e-01 5.77083416e-02 1.72411986e-02
      7.48979719e-03 3.47959250e-02 3.33789699e-02 1.63040876e-01
      1.77048147e-01 2.81992525e-01 1.97120488e-01 2.01591942e-02
      3.44496742e-02 1.81721970e-01 2.81992525e-01 1.67069778e-01
      2.81992525e-01 2.81992525e-01 1.96222901e-01 4.01340090e-02
      3.11279576e-03 7.72871263e-03 3.83661725e-02 2.50548840e-01
      6.48094043e-02 8.10577273e-02 5.66302203e-02 4.09396701e-02
      1.44952819e-01 8.61344412e-02 6.85654115e-03 1.94972232e-02
      1.90547984e-02 4.57227342e-02 2.91558027e-01 2.91558027e-01
      2.91558027e-01 1.07078940e-01 6.76943883e-02 4.52212356e-02
      6.77904785e-02 7.63987452e-02 1.33309171e-01 2.91558027e-01
      2.91558027e-01 1.27461702e-01 3.30749899e-02 6.77454798e-03
      3.76441889e-03 3.36297438e-03 2.02822238e-02 1.13604870e-02
      1.62229091e-01 9.24138948e-02 4.91356812e-02 2.18271956e-01
      9.44260359e-02 3.10684908e-02 6.74473792e-02 2.91558027e-01
      2.78355420e-01 2.91558027e-01 2.91558027e-01 2.11303845e-01
      9.23503190e-02 1.95024952e-01 2.13780239e-01 3.76656018e-02
      3.72742921e-01 2.14625597e-02 3.80197465e-02 3.64553630e-02
      6.69602081e-02 1.39094874e-01 4.29604277e-02 4.53410000e-02
      1.08869061e-01 3.72742921e-01 3.21903229e-02 1.01097174e-01
      1.23013519e-01 1.17668211e-01 5.77911772e-02 4.90892678e-02
      2.38640476e-02 7.53381662e-03 3.72742921e-01 3.77438962e-02
      5.42769693e-02 5.04926890e-02 5.74035905e-02 3.72742921e-01
      8.38768557e-02 7.35702412e-03 2.22064536e-02 3.72742921e-01
      5.82487956e-02 1.30973652e-01 5.23807779e-02 2.78183579e-01
      1.94779202e-01 3.19611691e-02 1.65411551e-02 1.20318308e-01
      3.39675128e-01 3.52943353e-02 1.00344501e-01 1.30496547e-01
      1.39084414e-01 1.84873611e-01 6.43137619e-02 4.06834017e-03
      2.46476997e-02 9.46058780e-02 1.23888766e-02 1.35666039e-02
      1.15613136e-02 1.20239608e-01 3.39675128e-01 2.24839777e-01
      4.17210860e-03 1.98236834e-02 2.89129436e-01 1.68937445e-02
      6.87704533e-02 2.01360881e-02 3.39675128e-01 3.39675128e-01
      3.39675128e-01 3.28547088e-03 4.13284777e-03 9.89444274e-03
      1.06422976e-03 1.53302844e-03 2.39787251e-03 3.39675128e-01
      1.85029656e-01 6.82650059e-02 2.26168172e-03 3.86008574e-03
      1.69721916e-02 1.18642887e-02 6.08542375e-03 2.19452325e-02
      1.30407825e-01 1.35073900e-01 4.31501865e-02 4.82123345e-02
      1.15034208e-01 2.81028479e-01 1.25423625e-01 7.54542127e-02
      8.40417072e-02 1.55628294e-01 2.93947458e-01 2.93947458e-01
      5.83979115e-02 5.13157845e-02 5.15642017e-02 4.40108702e-02
      6.97316369e-03 5.37486933e-02 2.93947458e-01 2.93947458e-01
      2.27866262e-01 2.93947458e-01 2.93947458e-01 2.93947458e-01
      1.51600018e-01 2.39471085e-02 1.04386494e-01 2.60874867e-01
      1.29644722e-01 9.17892065e-03 3.14279227e-03 5.87406894e-03
      2.97155917e-01 5.10079451e-02 1.49580151e-01 1.71964005e-01
      1.71803638e-01 2.97155917e-01 1.86888963e-01 4.23814962e-03
      2.60183914e-03 2.97155917e-01 5.25271744e-02 1.35934234e-01
      1.40911147e-01 2.97155917e-01 2.34355032e-01 4.05639969e-02
      3.92789505e-02 9.70652211e-04 5.78362308e-02 6.60634264e-02
      2.61100560e-01 1.79388508e-01 2.73744166e-01 2.97155917e-01
      1.36762366e-01 4.23956700e-02 3.56775336e-03 3.96414734e-02
      1.47713656e-02 9.57555398e-02 1.32633239e-01 2.97155917e-01
      3.10796678e-01 2.48452544e-01 6.14444818e-03 8.54522048e-04
      4.63623628e-02 7.39824586e-03 2.62671560e-02 8.84894840e-03
      3.10796678e-01 3.10796678e-01 3.10796678e-01 6.83922768e-02
      2.76371092e-03 4.51408513e-03 1.52000881e-04 1.98723399e-03
      3.04453773e-03 3.10796678e-01 3.10796678e-01 1.62866503e-01
      8.44749510e-02 5.65852132e-03 1.42698204e-02 2.02365872e-03
      1.93567686e-02 5.90351038e-02 2.66143411e-01 2.91180313e-01
      2.62629449e-01 2.22485200e-01 1.85638014e-02 2.35558245e-02
      1.61002530e-03 2.11452655e-02 4.44416218e-02 1.80806860e-01
      2.80588150e-01 2.80588150e-01 2.80588150e-01 5.45017980e-02
      4.49530557e-02 2.04777941e-02 4.00770642e-03 2.25301422e-02
      2.80588150e-01 2.80588150e-01 2.80588150e-01 2.80588150e-01
      2.48817399e-01 2.08828524e-01 5.90131953e-02 6.71862112e-03
      3.37004624e-02 1.67291120e-01 1.82037368e-01 2.63224006e-01
      2.80588150e-01 4.54651080e-02 5.88518046e-02 6.20304653e-03
      8.99246614e-03 2.52025407e-02 9.86459106e-02 6.04316033e-02
      1.07891001e-01 2.18807623e-01 9.18606520e-02 1.77638307e-01
      1.93477478e-02 5.16880973e-05 6.62576361e-03 3.51174027e-02</_>
    <_>
      5.73531203e-02 7.15161338e-02 8.68153274e-02 9.63913202e-02
      9.84826759e-02 7.88857564e-02 1.27110735e-01 6.47865459e-02
      5.04377596e-02 1.46713570e-01 1.52486518e-01 2.25236163e-01
      1.95083410e-01 1.61835149e-01 1.00959867e-01 2.50937253e-01
      1.58691466e-01 1.30895600e-01 4.63810749e-02 1.02283411e-01
      2.13222757e-01 1.10755540e-01 2.53213316e-01 9.67982560e-02
      1.13153994e-01 7.79600739e-02 4.68746722e-02 1.65817887e-01
      2.09613159e-01 2.53213316e-01 2.53213316e-01 2.53213316e-01
      2.17710957e-01 2.53213316e-01 2.53213316e-01 2.32068688e-01
      1.43978357e-01 1.01241671e-01 1.70784548e-01 1.29204437e-01
      1.11224867e-01 8.74005482e-02 2.56701320e-01 1.43083274e-01
      1.37540773e-01 1.04533017e-01 7.12889135e-02 1.82700247e-01
      1.17921434e-01 1.10684715e-01 1.07925281e-01 1.85878396e-01
      9.19537842e-02 1.09320410e-01 2.07326189e-01 1.37120605e-01
      2.56701320e-01 2.55370408e-01 2.56701320e-01 1.38034731e-01
      2.56701320e-01 2.48963892e-01 1.99659765e-01 1.21376298e-01
      5.07842973e-02 7.78298527e-02 1.34141937e-01 2.56701320e-01
      1.00996792e-01 2.56701320e-01 1.34131253e-01 7.88335130e-02
      1.25982717e-01 9.61044505e-02 1.29289016e-01 1.01553954e-01
      1.95384189e-01 2.07919657e-01 2.32735276e-01 2.31836095e-01
      1.50247946e-01 1.31715938e-01 1.18754767e-01 1.14281923e-01
      4.72604148e-02 1.48140743e-01 1.23156406e-01 1.52306855e-01
      1.83446258e-01 1.20841093e-01 2.53100932e-01 4.28859442e-02
      5.20708375e-02 1.17168739e-01 2.53100932e-01 1.52120113e-01
      2.08279073e-01 2.25728408e-01 1.72944367e-01 2.53100932e-01
      1.06255233e-01 1.00198999e-01 1.31533220e-01 2.53100932e-01
      8.12719166e-02 1.11014836e-01 1.86024919e-01 2.53100932e-01
      4.69874740e-02 3.63258496e-02 8.81163925e-02 5.35224825e-02
      2.52063096e-01 1.11443289e-01 5.37118763e-02 5.30772805e-02
      8.22505802e-02 1.39576346e-01 7.44094700e-02 2.40347832e-01
      1.75154284e-01 3.17543894e-01 3.17543894e-01 2.06089094e-01
      1.64305687e-01 2.60843396e-01 8.11471939e-02 2.67275386e-02
      1.66406613e-02 2.80129761e-02 1.57177642e-01 4.97173928e-02
      2.02256050e-02 1.68621559e-02 7.18317926e-02 1.36916190e-01
      6.78716153e-02 7.54952058e-02 6.70763254e-02 3.17543894e-01
      3.17543894e-01 3.17543894e-01 1.30288541e-01 2.17226177e-01
      1.50985301e-01 8.95120874e-02 1.18148372e-01 1.63776934e-01
      2.80295342e-01 1.22595698e-01 1.83138877e-01 7.27250874e-02
      1.34881511e-01 2.39748389e-01 6.41899407e-02 5.16512394e-02
      7.55349845e-02 1.88695922e-01 2.92707328e-02 9.74004641e-02
      3.38721685e-02 2.13816866e-01 2.24070504e-01 1.67702526e-01
      1.58592701e-01 5.01918755e-02 2.80295342e-01 1.86412886e-01
      2.47032568e-01 9.80577171e-02 2.78499186e-01 2.80295342e-01
      1.62096620e-01 1.61589220e-01 5.90640157e-02 1.56573787e-01
      4.13878784e-02 5.30372635e-02 5.13426401e-02 2.80295342e-01
      2.70537585e-01 2.93983258e-02 2.02487465e-02 4.62043174e-02
      1.83818325e-01 4.01990116e-02 4.90539446e-02 5.99252284e-02
      2.64497995e-01 2.70537585e-01 1.31738693e-01 1.17442906e-01
      1.28915220e-01 2.67321438e-01 3.90326940e-02 2.51253452e-02
      8.32890943e-02 2.30097845e-01 2.70537585e-01 1.01740435e-01
      1.46009937e-01 1.41532436e-01 2.60995626e-01 5.66844083e-02
      5.50312549e-02 8.98401141e-02 2.70537585e-01 2.70537585e-01
      1.52886003e-01 1.39024138e-01 1.93989739e-01 2.70537585e-01
      6.16138428e-02 2.64963545e-02 7.06317350e-02 1.95354581e-01
      1.69308037e-01 4.55104858e-02 3.44804823e-02 7.87301511e-02
      2.51448661e-01 6.91727623e-02 3.38865258e-02 1.68568455e-02
      1.53771684e-01 2.79704273e-01 1.28524080e-01 1.80196241e-01
      1.33117884e-01 2.79704273e-01 2.79704273e-01 2.79704273e-01
      1.55315384e-01 2.79704273e-01 9.31106284e-02 5.79046346e-02
      1.01750657e-01 7.59458393e-02 1.34388834e-01 5.15137501e-02
      1.33986464e-02 8.82754382e-03 1.16785884e-01 2.79704273e-01
      8.41163397e-02 1.61189005e-01 1.16211668e-01 2.79704273e-01
      1.73820138e-01 9.49898139e-02 2.70229578e-02 2.79704273e-01
      2.76616454e-01 1.65983379e-01 2.02524051e-01 4.23401855e-02
      1.80836380e-01 1.30884126e-01 2.69714743e-01 1.26520157e-01
      2.76616454e-01 2.76616454e-01 1.74738199e-01 2.17138812e-01
      1.46380454e-01 1.52229920e-01 4.51889783e-02 7.44420066e-02
      7.91912749e-02 2.76616454e-01 2.76616454e-01 7.03267232e-02
      8.98270458e-02 7.04659224e-02 1.09350763e-01 7.72801638e-02
      8.87136385e-02 4.60614227e-02 2.76616454e-01 1.97401106e-01
      7.00782314e-02 6.53562918e-02 1.21379621e-01 1.16742447e-01
      4.06833999e-02 6.58035204e-02 5.87078966e-02 2.47400627e-01
      2.73861349e-01 2.73861349e-01 2.73861349e-01 2.73861349e-01
      2.73861349e-01 9.15775746e-02 8.02776664e-02 9.83890519e-02
      2.73861349e-01 2.69893438e-01 2.43914604e-01 2.05117151e-01
      2.34720260e-01 2.47765273e-01 7.56094828e-02 2.18347125e-02
      3.71994674e-02 1.30206928e-01 1.45025149e-01 1.47857457e-01
      1.58934996e-01 1.77298874e-01 1.20096378e-01 5.43961301e-02
      7.41085932e-02 4.22962867e-02 9.83132496e-02 1.10005915e-01
      1.52027398e-01 1.53569102e-01 9.16633606e-02 4.10424806e-02
      2.59453580e-02 1.67481769e-02 1.05429050e-02 5.88472523e-02</_>
    <_>
      5.98007701e-02 1.03533491e-01 8.08939785e-02 7.79341087e-02
      9.39676166e-02 4.23650257e-02 2.19758525e-02 5.17290458e-02
      6.03628121e-02 1.40665784e-01 2.33628497e-01 2.55715668e-01
      1.71272412e-01 7.15238154e-02 3.09605114e-02 6.21725172e-02
      1.76797509e-01 1.23573184e-01 5.63215688e-02 2.46643022e-01
      2.70271569e-01 2.18559295e-01 2.45118394e-01 8.14880878e-02
      2.85165720e-02 6.72268867e-02 8.07984620e-02 1.63347468e-01
      2.70271569e-01 2.70271569e-01 2.70271569e-01 2.70271569e-01
      8.68459940e-02 1.06180303e-01 2.69874305e-01 2.31248245e-01
      2.16024205e-01 1.26268446e-01 1.30125254e-01 1.33660957e-01
      5.99965379e-02 7.11384416e-02 1.42653510e-01 2.43017361e-01
      2.02370554e-01 2.18917653e-01 4.31425758e-02 3.88637222e-02
      9.35919210e-02 4.50292528e-02 1.31931975e-01 1.39537469e-01
      1.16096154e-01 2.06616342e-01 2.42733136e-01 2.33169943e-01
      2.43017361e-01 1.62864745e-01 2.43017361e-01 1.29343778e-01
      2.43017361e-01 2.43017361e-01 2.43017361e-01 1.26268893e-01
      3.26844789e-02 2.28576008e-02 4.23138700e-02 2.43017361e-01
      1.14288747e-01 1.80981576e-01 1.75849065e-01 9.51911956e-02
      1.88079238e-01 5.14101572e-02 5.83998375e-02 9.22823399e-02
      8.50636363e-02 2.28046685e-01 2.28046685e-01 2.28046685e-01
      2.25643307e-01 1.45155564e-01 1.33113533e-01 1.54892564e-01
      1.05177179e-01 2.28046685e-01 1.95945621e-01 2.28046685e-01
      2.28046685e-01 9.50284153e-02 7.52289742e-02 2.34514810e-02
      2.57719830e-02 4.70361598e-02 1.91962436e-01 1.02114700e-01
      1.62931174e-01 1.52911693e-01 8.24231282e-02 2.28046685e-01
      2.28046685e-01 1.24999113e-01 1.18924364e-01 2.28046685e-01
      1.38925642e-01 2.28046685e-01 2.21255630e-01 1.92867845e-01
      1.11731492e-01 1.27628580e-01 1.89720556e-01 1.37122259e-01
      3.23828816e-01 5.98782040e-02 2.76902337e-02 1.75677221e-02
      5.87015487e-02 1.20468214e-01 1.85921535e-01 3.18092376e-01
      3.00102353e-01 3.23828816e-01 7.50257075e-02 3.58650535e-02
      5.87142557e-02 1.51735678e-01 1.49133310e-01 4.91236821e-02
      4.09284234e-02 9.84287411e-02 3.23828816e-01 5.42883761e-02
      3.27903926e-02 4.80254665e-02 9.46605429e-02 1.90513596e-01
      7.70249367e-02 7.73416832e-02 2.37261578e-01 3.23828816e-01
      1.16749711e-01 7.71064907e-02 6.59418404e-02 1.79399207e-01
      1.83952585e-01 1.15097210e-01 1.10073544e-01 1.23777874e-01
      2.87273854e-01 7.06504434e-02 8.20337832e-02 1.09357893e-01
      1.34029746e-01 2.14198172e-01 8.73594135e-02 8.41788650e-02
      1.73923187e-02 2.14216173e-01 3.80194634e-02 4.47093472e-02
      4.92506288e-02 1.51608974e-01 2.87273854e-01 2.02334672e-01
      1.19225420e-01 9.53410715e-02 2.87273854e-01 7.16166422e-02
      7.08352476e-02 6.26985356e-02 2.87273854e-01 2.87273854e-01
      2.87273854e-01 2.87273854e-01 1.11802034e-02 7.32786953e-02
      1.46697601e-02 1.55682871e-02 2.88628433e-02 2.87273854e-01
      2.12647617e-01 1.17209449e-01 1.03319526e-01 1.68780945e-02
      1.40404820e-01 3.62349972e-02 1.17913214e-02 1.66000538e-02
      2.12393612e-01 2.02137783e-01 1.40744850e-01 5.72318658e-02
      4.46409471e-02 2.18966648e-01 8.63425881e-02 3.54545563e-02
      3.14523131e-02 2.28664666e-01 2.70256341e-01 2.70256341e-01
      2.70256341e-01 5.99090829e-02 2.38543451e-01 6.45059273e-02
      1.39554925e-02 7.13984668e-02 2.70256341e-01 2.70256341e-01
      1.58036605e-01 2.02205643e-01 6.60551488e-02 2.70256341e-01
      1.49574772e-01 6.50201514e-02 8.31663385e-02 2.70256341e-01
      9.74426046e-02 3.12767923e-02 4.16527279e-02 6.54055774e-02
      2.76183099e-01 9.18531269e-02 1.11391172e-01 1.85863018e-01
      2.11425781e-01 2.76183099e-01 1.20062277e-01 3.18991691e-02
      6.26128912e-02 2.76183099e-01 1.46142110e-01 1.98311061e-01
      1.87923789e-01 2.76183099e-01 8.54859576e-02 8.96304250e-02
      7.85676911e-02 8.97921175e-02 2.46266052e-01 8.19756910e-02
      1.90502256e-01 2.56181479e-01 1.32862657e-01 2.32009068e-01
      1.52090341e-01 5.21637164e-02 5.35906106e-02 1.39166608e-01
      8.26541483e-02 1.74017236e-01 1.94731250e-01 2.58323878e-01
      2.81462520e-01 2.81462520e-01 9.94799510e-02 2.61226092e-02
      1.74632192e-01 7.48487487e-02 7.70549700e-02 6.74428120e-02
      2.81462520e-01 2.81462520e-01 2.81462520e-01 2.60607541e-01
      6.01285286e-02 3.89144532e-02 4.78205383e-02 2.01993268e-02
      3.86724211e-02 2.81462520e-01 2.81462520e-01 8.03281516e-02
      5.14111109e-02 3.93599384e-02 5.61055876e-02 1.04111791e-01
      9.97359604e-02 6.65205121e-02 2.50072420e-01 2.81462520e-01
      9.08335224e-02 1.14969991e-01 1.55091554e-01 1.02783762e-01
      1.41673684e-01 8.84170085e-02 7.42228255e-02 1.94918141e-01
      2.55855411e-01 2.55855411e-01 2.55855411e-01 1.45147979e-01
      2.37481311e-01 8.86901543e-02 3.56353857e-02 1.20675281e-01
      2.55855411e-01 2.55855411e-01 1.19311765e-01 1.96488589e-01
      1.07476249e-01 2.55855411e-01 1.78801775e-01 1.32164732e-01
      1.38522789e-01 1.76601961e-01 2.55855411e-01 1.51674569e-01
      1.31713331e-01 1.80375621e-01 1.27283916e-01 1.40468255e-01
      8.20017084e-02 8.61564428e-02 1.27634987e-01 1.33835077e-01
      9.53333750e-02 9.79387984e-02 1.08198620e-01 1.18799709e-01
      1.45455673e-01 1.58622831e-01 1.10588416e-01 1.16689876e-01</_>
    <_>
      2.86396313e-02 2.23607570e-02 1.72284812e-01 2.59903878e-01
      2.63970822e-01 2.61030674e-01 1.72687575e-01 9.66775045e-02
      6.61931708e-02 6.06763475e-02 4.46969606e-02 2.66605318e-01
      2.38809019e-01 1.78950295e-01 1.45439029e-01 1.50777400e-01
      1.17059045e-01 8.52946416e-02 1.63057670e-02 2.36112345e-02
      4.47655655e-02 2.29655802e-01 2.66605318e-01 2.66605318e-01
      1.65229082e-01 9.58270580e-02 6.06956258e-02 3.05225775e-02
      1.37921060e-02 3.47233079e-02 1.57960683e-01 2.66605318e-01
      2.66605318e-01 2.06882626e-01 1.67031646e-01 9.33397636e-02
      7.89806396e-02 1.14387915e-01 1.79343909e-01 1.71454519e-01
      1.61941573e-01 1.03203841e-01 1.96144968e-01 8.17643330e-02
      7.55733699e-02 5.40124290e-02 1.44062623e-01 1.52475238e-01
      2.54256308e-01 2.54256308e-01 2.00553924e-01 2.38742724e-01
      4.46317606e-02 4.40925285e-02 7.02196360e-02 8.20174664e-02
      8.07915032e-02 2.16815889e-01 2.54256308e-01 2.39004940e-01
      1.47194594e-01 1.19737200e-01 9.48683023e-02 2.54256308e-01
      1.75178587e-01 2.00806290e-01 2.54256308e-01 2.54256308e-01
      8.82219672e-02 7.67933801e-02 7.89153948e-02 1.86109483e-01
      4.87015471e-02 6.19902201e-02 8.57026130e-02 2.51130909e-01
      2.92466491e-01 1.66550934e-01 1.07760467e-01 4.29942496e-02
      3.80941555e-02 1.00611404e-01 6.73084706e-02 4.65717725e-02
      9.32648927e-02 2.92466491e-01 2.13214561e-01 1.12404808e-01
      3.44180763e-02 7.98340887e-02 2.92466491e-01 1.46816820e-01
      1.04712062e-01 1.82712540e-01 1.12985685e-01 3.69035602e-02
      4.14780304e-02 7.16894642e-02 2.90516943e-01 2.92466491e-01
      1.09007150e-01 1.27458528e-01 2.14434698e-01 2.04642966e-01
      6.90204054e-02 1.31286472e-01 2.22851500e-01 2.92466491e-01
      3.39874290e-02 4.17378135e-02 7.17854267e-03 5.08111790e-02
      3.12605202e-01 3.12605202e-01 1.92590818e-01 5.35638146e-02
      3.09235696e-02 9.78651550e-03 4.75140801e-03 3.11854435e-03
      4.82781976e-02 3.12605202e-01 3.12605202e-01 1.55651286e-01
      5.16029559e-02 1.86582170e-02 6.34168535e-02 4.41108197e-02
      2.64371708e-02 2.42252294e-02 1.63602501e-01 3.12605202e-01
      3.12605202e-01 1.57720089e-01 3.21634561e-02 4.54157218e-02
      9.26038623e-03 4.23830142e-03 1.53555358e-02 1.57320336e-01
      3.12605202e-01 3.12605202e-01 2.13069201e-01 8.04776102e-02
      1.18951559e-01 1.16780056e-02 1.30625647e-02 6.77074715e-02
      3.12074155e-01 2.64988869e-01 1.12458721e-01 1.16082929e-01
      8.34082738e-02 3.12074155e-01 6.17148317e-02 3.17188390e-02
      4.62754108e-02 1.10438690e-01 6.41379952e-02 7.37958401e-02
      1.07498929e-01 2.55776376e-01 3.12074155e-01 4.25658859e-02
      8.63086898e-03 1.34877339e-02 9.70102027e-02 2.39561826e-01
      2.75402725e-01 2.25575328e-01 2.48300329e-01 3.12074155e-01
      1.21347636e-01 1.96322165e-02 3.98769695e-03 1.04591493e-02
      2.75800303e-02 3.22583951e-02 8.72403681e-02 3.12074155e-01
      2.91078299e-01 6.67100549e-02 1.16316956e-02 1.09476410e-02
      1.04270438e-02 7.21141649e-03 1.81568172e-02 3.50458473e-02
      2.08560094e-01 2.91078299e-01 5.94617985e-02 7.60481730e-02
      1.58207700e-01 1.27983600e-01 3.63453850e-02 8.82631615e-02
      1.30969152e-01 2.52097338e-01 2.91078299e-01 1.63713023e-01
      1.29594952e-01 5.64399324e-02 2.23135781e-02 1.66445747e-02
      6.58394862e-03 2.11918429e-02 2.20478609e-01 2.91078299e-01
      1.63334653e-01 2.91078299e-01 2.91078299e-01 2.91078299e-01
      9.08714831e-02 3.29713263e-02 6.49751946e-02 2.76826769e-01
      5.80388233e-02 1.99798271e-02 6.49278387e-02 1.09288134e-01
      1.88437104e-01 2.90670663e-01 3.04798752e-01 1.83488995e-01
      3.61505486e-02 8.07362944e-02 2.55409330e-02 1.91232245e-02
      5.97954988e-02 8.92643481e-02 2.68003166e-01 3.04798752e-01
      3.04798752e-01 2.11770833e-01 6.11997321e-02 2.48748362e-02
      8.85132998e-02 1.77534893e-01 2.32018381e-01 1.32785752e-01
      1.81742355e-01 9.90307108e-02 3.59109342e-02 1.11742653e-01
      7.01407790e-02 6.21619299e-02 1.71601504e-01 2.07780316e-01
      1.30644962e-01 3.04798752e-01 1.50039598e-01 1.48031846e-01
      2.81675935e-01 5.09202890e-02 1.75698735e-02 1.90702546e-02
      2.07707230e-02 7.67996684e-02 2.81675935e-01 2.81675935e-01
      2.81675935e-01 2.81675935e-01 1.64782956e-01 4.85950261e-02
      1.10473707e-02 5.08972909e-03 1.85961723e-02 4.80490401e-02
      1.12000018e-01 2.81675935e-01 1.85840517e-01 5.42615727e-02
      4.68473919e-02 7.74159431e-02 1.34484887e-01 9.86281335e-02
      1.96734056e-01 1.55668855e-01 2.60545939e-01 2.81675935e-01
      1.79610237e-01 1.43445283e-01 1.29513621e-01 1.25080749e-01
      9.17855799e-02 9.35768932e-02 9.31497887e-02 2.68183380e-01
      2.47906640e-01 2.01865837e-01 1.97128713e-01 5.70404939e-02
      2.89087761e-02 1.94721837e-02 7.28771463e-03 1.17597878e-02
      1.48613498e-01 2.47906640e-01 2.28852466e-01 2.47906640e-01
      2.47906640e-01 2.47906640e-01 7.13539198e-02 1.26199648e-02
      5.01481257e-02 1.42958209e-01 2.38431811e-01 1.49206221e-01
      1.88422188e-01 1.69163436e-01 1.77684858e-01 6.53662682e-02
      3.94131616e-02 1.68214552e-02 1.09308265e-01 1.99699238e-01
      1.93970039e-01 2.47906640e-01 2.47906640e-01 2.47906640e-01
      1.40053317e-01 1.00667268e-01 9.32909325e-02 1.00561023e-01</_>
    <_>
      2.30442122e-01 1.13899387e-01 1.47392228e-01 1.46245345e-01
      1.49492934e-01 8.36683437e-02 6.56214282e-02 1.18491434e-01
      1.26824662e-01 2.30442122e-01 1.20940521e-01 1.81223840e-01
      8.36800262e-02 1.12109356e-01 8.56690705e-02 9.75278169e-02
      9.68288109e-02 2.07708836e-01 2.30442122e-01 2.30442122e-01
      2.08451673e-01 1.98806509e-01 1.83185130e-01 1.26256019e-01
      1.09666690e-01 1.36221662e-01 1.28410846e-01 2.30442122e-01
      2.25329936e-01 2.30442122e-01 2.30442122e-01 2.05092981e-01
      8.80873352e-02 1.67285472e-01 1.36613950e-01 2.07143128e-01
      2.40216896e-01 9.35055688e-02 1.17323674e-01 9.99548733e-02
      1.20960921e-01 9.60077643e-02 2.19882771e-01 1.37103841e-01
      2.40216896e-01 2.40216896e-01 7.37327561e-02 6.70683235e-02
      9.69129354e-02 1.11232139e-01 5.90949543e-02 1.24557301e-01
      1.06297798e-01 2.20326141e-01 2.40216896e-01 1.05549634e-01
      2.40216896e-01 2.40216896e-01 2.40216896e-01 1.46285787e-01
      2.40216896e-01 2.40216896e-01 2.40216896e-01 1.58056274e-01
      3.29709165e-02 3.68457958e-02 1.01637878e-01 2.40216896e-01
      1.00390047e-01 1.09422691e-01 1.21802405e-01 1.47058889e-01
      2.21867487e-01 1.29888371e-01 1.05034985e-01 1.40414491e-01
      2.14662895e-01 5.72498366e-02 9.40496400e-02 1.69781491e-01
      1.96819603e-01 2.21867487e-01 1.65231973e-01 1.21843673e-01
      7.12462813e-02 1.68264762e-01 9.70604569e-02 1.89346626e-01
      2.21867487e-01 2.06482723e-01 1.46609157e-01 7.73177668e-02
      6.97802082e-02 9.77325141e-02 2.21867487e-01 6.23143055e-02
      8.33374485e-02 1.06374636e-01 1.19428627e-01 2.21867487e-01
      2.21867487e-01 2.21867487e-01 1.84325725e-01 2.21867487e-01
      1.53692156e-01 2.21867487e-01 2.13124067e-01 1.91326141e-01
      1.85473233e-01 2.03982517e-01 1.59804523e-01 1.44102827e-01
      1.96500778e-01 1.88983858e-01 1.21825688e-01 8.88753086e-02
      6.91479594e-02 1.60778731e-01 1.15982242e-01 1.99910298e-01
      2.00203001e-01 2.84644932e-01 1.87359497e-01 2.18374565e-01
      1.26677558e-01 1.64350152e-01 5.76949492e-02 6.22886829e-02
      3.92436348e-02 3.76078039e-02 2.45601416e-01 2.84644932e-01
      1.50418237e-01 3.30857486e-02 3.16987000e-02 8.30421001e-02
      1.54880248e-02 3.00538074e-03 3.35315131e-02 2.84644932e-01
      2.84644932e-01 2.84644932e-01 9.31055024e-02 1.02655150e-01
      1.52716681e-01 4.28014286e-02 8.02439526e-02 1.32579625e-01
      2.80784637e-01 1.29918531e-01 2.06053063e-01 8.23340043e-02
      1.64406717e-01 2.13260248e-01 6.91576526e-02 4.31341641e-02
      5.39464615e-02 2.10851043e-01 5.09711243e-02 7.79716074e-02
      3.64402905e-02 1.46078452e-01 2.76436806e-01 7.04677254e-02
      2.74319071e-02 2.54966598e-02 2.80784637e-01 2.15934917e-01
      2.80784637e-01 8.51756260e-02 2.42369354e-01 2.80784637e-01
      2.80784637e-01 1.74506456e-01 1.81994662e-02 6.54715896e-02
      3.17471698e-02 1.33972079e-01 3.95474732e-02 2.80784637e-01
      2.34472677e-01 9.73636657e-02 7.77091905e-02 4.05302607e-02
      9.02170390e-02 1.59590021e-02 5.01890741e-02 5.51476441e-02
      1.79021165e-01 1.46624789e-01 1.30318850e-01 1.60381541e-01
      1.18097343e-01 1.72898039e-01 9.85030681e-02 1.60007805e-01
      8.48568454e-02 1.62956327e-01 2.73913682e-01 2.73913682e-01
      2.73913682e-01 8.05064887e-02 4.43102717e-02 1.16868392e-02
      5.86060770e-02 1.02166720e-01 2.73913682e-01 2.73913682e-01
      2.05099523e-01 2.52054930e-01 1.50981009e-01 1.72141612e-01
      9.61797014e-02 2.45258868e-01 1.32209331e-01 2.43949741e-01
      1.63360946e-02 2.05884445e-02 4.72079739e-02 5.40717915e-02
      2.40769684e-01 2.47780800e-01 1.32134914e-01 2.55105887e-02
      2.06492711e-02 1.19492806e-01 3.43022682e-02 4.99800071e-02
      5.41636422e-02 2.47780800e-01 2.47780800e-01 2.47780800e-01
      1.03980094e-01 1.18674256e-01 2.47780800e-01 2.47780800e-01
      2.47780800e-01 7.26174414e-02 2.11015910e-01 1.33139983e-01
      4.71188314e-02 3.20719369e-02 1.60462603e-01 2.47780800e-01
      2.47780800e-01 2.10038990e-01 1.07312769e-01 2.28093475e-01
      1.74692854e-01 8.94555151e-02 1.20830774e-01 2.43988171e-01
      2.61061490e-01 1.08363226e-01 4.37182374e-02 2.70468816e-02
      1.18159473e-01 1.48876727e-01 2.37257510e-01 1.00684159e-01
      2.61061490e-01 2.61061490e-01 2.61061490e-01 2.10196108e-01
      4.89979275e-02 3.56496498e-02 4.33842875e-02 6.10672161e-02
      3.42154540e-02 2.61061490e-01 2.61061490e-01 1.59654677e-01
      3.21228616e-02 1.00158915e-01 1.06276542e-01 1.20975226e-01
      5.02362177e-02 1.19462475e-01 2.61061490e-01 2.61061490e-01
      1.63707927e-01 1.08234599e-01 1.83640465e-01 1.92939684e-01
      1.22711316e-01 5.25537245e-02 7.66471848e-02 2.61061490e-01
      2.56619006e-01 2.56619006e-01 2.56619006e-01 1.01229534e-01
      4.49659564e-02 2.14737095e-02 3.87075022e-02 5.28752767e-02
      1.91624120e-01 2.29826465e-01 2.31358856e-01 2.56619006e-01
      1.20096348e-01 7.52429068e-02 2.82463506e-02 8.49012360e-02
      6.70469552e-02 1.30470797e-01 2.56619006e-01 2.03429773e-01
      2.56619006e-01 1.87041342e-01 1.80955589e-01 1.00673951e-01
      9.17869136e-02 1.21657439e-01 1.42874151e-01 2.56619006e-01
      2.23651215e-01 2.56619006e-01 1.07647806e-01 6.67352155e-02
      4.82165590e-02 5.51678389e-02 7.65100867e-02 1.44009188e-01</_>
    <_>
      1.10550761e-01 1.04456879e-01 9.96880084e-02 7.63334483e-02
      1.19841069e-01 7.88701475e-02 6.07618466e-02 9.36505422e-02
      5.93953058e-02 2.25900158e-01 2.54110485e-01 2.54110485e-01
      2.54110485e-01 2.12352008e-01 9.61878970e-02 1.01469629e-01
      1.76538661e-01 8.80276039e-02 1.89051822e-01 1.24028459e-01
      8.11696053e-02 1.18431203e-01 2.54110485e-01 1.42558709e-01
      8.59647021e-02 8.96226317e-02 6.46920204e-02 2.54110485e-01
      1.54632241e-01 2.54110485e-01 2.54110485e-01 2.54110485e-01
      2.34203249e-01 1.47907078e-01 1.04817286e-01 1.65929869e-01
      1.73695847e-01 1.95840523e-01 2.29869053e-01 2.51177698e-01
      1.71433493e-01 9.83644724e-02 2.51177698e-01 2.16664657e-01
      1.29566684e-01 7.68905059e-02 4.18243371e-02 2.85263415e-02
      9.35152695e-02 2.11091444e-01 1.21952318e-01 2.36794338e-01
      1.34382710e-01 9.62219685e-02 2.09961936e-01 7.81297609e-02
      1.79302007e-01 2.51177698e-01 2.51177698e-01 1.38333231e-01
      1.22138314e-01 5.55913448e-02 2.14552626e-01 1.97048739e-01
      5.34158126e-02 7.48083889e-02 1.66626260e-01 2.51177698e-01
      8.49488527e-02 7.67761916e-02 3.66494656e-02 2.06947163e-01
      1.03274323e-01 2.94093993e-02 2.61805020e-02 6.11130893e-02
      2.53618509e-01 7.23414645e-02 1.06138915e-01 6.86347932e-02
      8.76199082e-02 2.65343100e-01 1.04350470e-01 4.47917543e-02
      1.90729797e-01 2.65343100e-01 9.89652202e-02 1.50001228e-01
      8.35966840e-02 2.65343100e-01 2.65343100e-01 8.67477357e-02
      1.03831023e-01 7.66528770e-02 1.84718639e-01 4.70202677e-02
      7.31767267e-02 3.81014161e-02 2.65343100e-01 2.65343100e-01
      1.01091459e-01 4.67853546e-02 1.88218191e-01 2.65343100e-01
      2.65343100e-01 1.95684060e-01 1.11906230e-01 2.65343100e-01
      1.64676413e-01 1.33260965e-01 4.82991971e-02 1.44781083e-01
      3.11434060e-01 1.46393567e-01 5.71428388e-02 1.00424565e-01
      6.34058416e-02 2.96857148e-01 7.82754868e-02 6.04990683e-02
      1.24716446e-01 3.11434060e-01 2.68781990e-01 1.06450178e-01
      8.10550600e-02 1.65783152e-01 4.79906797e-02 8.38510767e-02
      4.14973833e-02 9.75579545e-02 3.11434060e-01 1.76152810e-01
      1.08003616e-01 1.36016428e-01 1.22398928e-01 1.48729548e-01
      4.19117622e-02 1.94254816e-02 8.19008723e-02 3.11434060e-01
      2.18949854e-01 1.12894781e-01 1.66634873e-01 2.33862534e-01
      2.12220952e-01 5.48705086e-02 5.32014854e-02 7.32197091e-02
      2.85328120e-01 1.23563051e-01 4.42303829e-02 2.71504428e-02
      1.51161313e-01 2.85328120e-01 1.61643282e-01 1.54880092e-01
      4.89742085e-02 2.26339892e-01 3.27455439e-02 9.12779197e-03
      1.31408256e-02 2.67856240e-01 2.85328120e-01 7.46038407e-02
      9.94880497e-02 2.25002747e-02 2.85328120e-01 1.11470722e-01
      4.01391909e-02 8.25319514e-02 2.77047068e-01 2.85328120e-01
      2.24371389e-01 2.50843138e-01 1.84715651e-02 7.45402351e-02
      3.71831991e-02 1.32685527e-02 2.25999393e-02 2.85328120e-01
      2.53556699e-01 1.89340249e-01 1.81973919e-01 4.61298414e-02
      7.37804547e-02 1.15182791e-02 3.48944850e-02 1.43022565e-02
      2.53556699e-01 2.53556699e-01 7.49721602e-02 8.68031010e-02
      1.07172847e-01 2.53556699e-01 1.46768570e-01 1.21152617e-01
      4.87673357e-02 2.53556699e-01 2.53556699e-01 2.53556699e-01
      2.44304195e-01 7.09656551e-02 9.72943306e-02 2.69883275e-02
      2.39653140e-02 2.56357212e-02 2.53556699e-01 2.53556699e-01
      1.50426596e-01 1.58069551e-01 1.81389973e-01 2.53556699e-01
      1.27063543e-01 7.39708319e-02 4.34637405e-02 1.81816936e-01
      4.25070487e-02 5.92646822e-02 5.25694788e-02 1.09003954e-01
      2.45215312e-01 2.12741569e-01 2.55388826e-01 2.00129345e-01
      1.73111692e-01 2.09211305e-01 7.61013106e-02 3.33649181e-02
      6.56207353e-02 2.55388826e-01 2.30649814e-01 2.55388826e-01
      2.34776869e-01 2.55388826e-01 7.10099265e-02 9.58272815e-02
      8.97886977e-02 9.78048667e-02 1.37000412e-01 7.71488324e-02
      1.97605252e-01 1.27477780e-01 1.06416456e-01 1.55414134e-01
      1.40777633e-01 5.76567426e-02 6.72667995e-02 1.60257086e-01
      1.40138015e-01 2.55388826e-01 1.64605469e-01 2.55388826e-01
      2.56876707e-01 9.61356238e-02 1.07349657e-01 3.26116681e-02
      1.89565048e-01 1.07753709e-01 1.22624308e-01 9.42507237e-02
      2.56876707e-01 2.56876707e-01 1.63472384e-01 2.26285756e-01
      1.28309846e-01 1.89622462e-01 1.02686174e-01 5.03927879e-02
      7.63902366e-02 2.56876707e-01 2.35538185e-01 1.23931617e-01
      8.42856765e-02 5.43563291e-02 1.48339450e-01 1.22141488e-01
      2.00829968e-01 9.94220749e-02 2.20133051e-01 2.56876707e-01
      8.73131454e-02 1.18887842e-01 1.69002533e-01 2.48794600e-01
      1.33838072e-01 1.11109920e-01 1.57282755e-01 2.03056902e-01
      2.23148867e-01 1.88251898e-01 1.99621305e-01 1.95027769e-01
      1.94404215e-01 8.55907798e-02 5.82987666e-02 9.22884643e-02
      2.23148867e-01 2.23148867e-01 1.75668105e-01 1.55410245e-01
      2.23148867e-01 2.23148867e-01 1.66998744e-01 7.40708932e-02
      7.78018758e-02 1.34540871e-01 2.23148867e-01 6.34364262e-02
      5.82480729e-02 1.88462660e-01 2.03059003e-01 1.11933894e-01
      1.17058069e-01 1.96254984e-01 1.65980935e-01 1.91085756e-01
      1.35314181e-01 9.50810984e-02 2.23148867e-01 2.04213038e-01
      1.23181850e-01 1.22028984e-01 1.78243533e-01 1.49781585e-01</_>
    <_>
      1.01267815e-01 6.18110113e-02 6.23572581e-02 6.39158264e-02
      7.77958110e-02 5.02914675e-02 8.49145874e-02 8.37278739e-02
      9.44575444e-02 1.96446404e-01 1.57303259e-01 1.41813025e-01
      1.13667712e-01 8.65878612e-02 1.57643303e-01 1.49449661e-01
      1.59689739e-01 2.26565883e-01 1.87357143e-01 1.56905949e-01
      1.68801501e-01 1.45942092e-01 2.09537491e-01 1.98839486e-01
      2.26565883e-01 1.44614369e-01 1.43647268e-01 2.26565883e-01
      2.26565883e-01 2.26565883e-01 2.26565883e-01 2.26565883e-01
      1.78873807e-01 2.26565883e-01 1.97279215e-01 2.26565883e-01
      2.22422153e-01 1.07693419e-01 9.01909545e-02 1.79742798e-01
      1.26995921e-01 1.20867260e-01 1.77724972e-01 1.88292474e-01
      2.36399531e-01 2.18638778e-01 9.78155881e-02 3.78985628e-02
      2.04849586e-01 1.59543365e-01 8.52942169e-02 8.57077613e-02
      1.14840925e-01 1.71210393e-01 2.36399531e-01 2.02254385e-01
      1.42479420e-01 1.64564833e-01 2.36399531e-01 9.88976285e-02
      2.36399531e-01 2.36399531e-01 2.36399531e-01 1.39140531e-01
      6.12734109e-02 1.59903113e-02 7.50260577e-02 2.36399531e-01
      4.86451760e-02 2.36399531e-01 1.61600113e-01 1.11241408e-01
      2.40848884e-01 1.07243381e-01 8.04767683e-02 2.39371330e-01
      1.79140732e-01 1.33189797e-01 9.14999694e-02 9.57243517e-02
      1.85852647e-01 2.40848884e-01 1.49487734e-01 1.14795521e-01
      2.35656202e-01 2.40848884e-01 1.33053243e-01 1.48068056e-01
      7.87014440e-02 2.37755239e-01 1.46673277e-01 5.35355695e-02
      5.21938652e-02 1.03538804e-01 1.94645435e-01 9.48027521e-02
      7.96752647e-02 6.53471202e-02 1.69493407e-01 2.40848884e-01
      2.36606762e-01 1.53497875e-01 2.02299803e-01 2.01932967e-01
      1.37092188e-01 1.39092594e-01 1.16315119e-01 2.40848884e-01
      2.21530288e-01 8.25755075e-02 9.37122330e-02 9.70289260e-02
      2.75645524e-01 1.42688140e-01 1.56909510e-01 1.00631438e-01
      1.22816592e-01 2.25927472e-01 1.03938296e-01 1.42949834e-01
      1.88761428e-01 2.75645524e-01 2.44726151e-01 2.45336756e-01
      1.66472003e-01 1.48209542e-01 1.18642248e-01 1.80890784e-02
      1.85372178e-02 7.75292292e-02 2.75645524e-01 7.04645589e-02
      5.05769886e-02 6.02754653e-02 1.08314045e-01 2.00829297e-01
      4.55194227e-02 2.10116543e-02 4.57758866e-02 2.75645524e-01
      2.75645524e-01 1.47282019e-01 1.51257634e-01 2.28541046e-01
      2.11861864e-01 9.68960449e-02 3.89686227e-02 6.84095174e-02
      2.72139639e-01 1.85861066e-01 2.01523289e-01 1.34148940e-01
      1.40189916e-01 2.30056599e-01 1.06257759e-01 4.52172123e-02
      1.86469276e-02 1.69973508e-01 4.16514948e-02 9.14550945e-02
      7.00332671e-02 1.80126533e-01 2.72139639e-01 1.48062557e-01
      6.76423758e-02 1.74886547e-02 2.72139639e-01 2.38367200e-01
      1.14963852e-01 8.74941126e-02 2.72139639e-01 2.72139639e-01
      2.72139639e-01 2.23612979e-01 2.18201578e-02 4.48025316e-02
      4.99066152e-02 3.61359604e-02 4.30840254e-02 2.72139639e-01
      2.13799819e-01 9.24485475e-02 4.98835258e-02 3.63813788e-02
      8.41645375e-02 4.70355228e-02 2.55148783e-02 5.56835495e-02
      1.82954147e-01 2.66802281e-01 2.28373766e-01 1.46155268e-01
      9.77940261e-02 1.16215304e-01 6.87894225e-02 6.11238703e-02
      1.16285756e-01 2.39660352e-01 2.66802281e-01 2.66802281e-01
      2.55938411e-01 8.89228508e-02 5.73392622e-02 8.61507580e-02
      4.21512723e-02 8.74482542e-02 2.66802281e-01 2.66802281e-01
      2.66802281e-01 1.96154892e-01 1.35844961e-01 1.75741211e-01
      1.40749797e-01 6.71874732e-02 1.12968557e-01 2.66802281e-01
      1.70211568e-01 1.01685002e-01 4.49126512e-02 8.58200490e-02
      1.55856788e-01 1.18598342e-01 8.18352029e-02 6.14671037e-02
      1.35181025e-01 2.46654108e-01 9.55538526e-02 4.44770902e-02
      8.63455012e-02 2.46654108e-01 2.46654108e-01 1.53026372e-01
      1.42687589e-01 2.46654108e-01 2.46654108e-01 2.46654108e-01
      1.29863933e-01 6.62850365e-02 8.99411961e-02 1.84384421e-01
      1.36286587e-01 9.77291837e-02 1.51938483e-01 2.46654108e-01
      1.51745796e-01 8.13432932e-02 1.72333926e-01 2.17356116e-01
      2.46654108e-01 1.68600604e-01 1.49269879e-01 2.46654108e-01
      2.59418845e-01 1.64341509e-01 7.70109668e-02 3.95261161e-02
      1.36409789e-01 1.45999357e-01 6.62268922e-02 7.86248669e-02
      2.59418845e-01 2.59418845e-01 2.59418845e-01 2.59418845e-01
      1.01291120e-01 8.61559287e-02 7.77091980e-02 6.35160729e-02
      7.32000396e-02 2.59418845e-01 2.07976371e-01 7.06736892e-02
      4.31894548e-02 1.16959676e-01 1.82946458e-01 1.74996808e-01
      5.84940016e-02 8.87694806e-02 2.59418845e-01 2.59418845e-01
      8.32182840e-02 1.08001769e-01 1.38731554e-01 2.17223316e-01
      1.27689555e-01 1.16087794e-01 1.40093297e-01 2.59418845e-01
      2.44663313e-01 2.44663313e-01 2.44663313e-01 1.58358335e-01
      7.36845881e-02 5.07601537e-02 6.12627193e-02 7.44539499e-02
      1.93418771e-01 2.44663313e-01 2.44663313e-01 2.23498434e-01
      1.24001078e-01 1.69638231e-01 7.26213157e-02 2.95566376e-02
      8.19833577e-02 1.76325232e-01 1.86422318e-01 1.44878656e-01
      1.60744131e-01 1.31959975e-01 1.26216039e-01 5.69063239e-02
      1.17373176e-01 1.08579941e-01 1.82930917e-01 2.44663313e-01
      2.10727617e-01 1.70040742e-01 1.56091213e-01 2.44663313e-01
      7.06078410e-02 8.54975060e-02 2.19782919e-01 1.58747986e-01</_>
    <_>
      1.15136757e-01 1.60779595e-01 1.67558283e-01 1.55168623e-01
      5.32059148e-02 1.41662965e-02 1.86492279e-02 5.16013727e-02
      5.67762293e-02 1.57605499e-01 1.99893206e-01 2.59274185e-01
      1.63761303e-01 1.98625207e-01 6.30330667e-02 1.33442998e-01
      9.96254757e-02 1.90203220e-01 1.56929761e-01 1.18418530e-01
      1.87541291e-01 1.40945405e-01 1.59180462e-01 7.96349645e-02
      4.44656834e-02 7.83842802e-02 1.39164671e-01 1.77742943e-01
      2.59274185e-01 2.59274185e-01 2.27935970e-01 2.59274185e-01
      1.60817295e-01 2.53450930e-01 1.87926978e-01 2.59274185e-01
      2.29946762e-01 8.54138210e-02 1.16008051e-01 1.15516648e-01
      1.78599969e-01 6.94997832e-02 2.10847184e-01 1.19784474e-01
      2.44503960e-01 2.44503960e-01 6.66771680e-02 5.27944602e-02
      1.02146782e-01 2.43060201e-01 9.65542793e-02 2.14435756e-01
      1.08624853e-01 2.44503960e-01 1.31605312e-01 1.92625105e-01
      2.44503960e-01 1.24829702e-01 2.44503960e-01 1.11155644e-01
      2.44503960e-01 1.84256479e-01 1.75586849e-01 1.33084789e-01
      8.90844911e-02 8.14340860e-02 8.64153355e-02 2.01851413e-01
      7.73270801e-02 2.44503960e-01 1.05022192e-01 8.98970887e-02
      2.07672939e-01 1.24030456e-01 1.01919234e-01 9.44469050e-02
      2.21048355e-01 1.14617817e-01 2.40546703e-01 2.02613860e-01
      1.39719993e-01 7.26813525e-02 8.15313682e-02 9.36590061e-02
      8.92609134e-02 1.77680105e-01 1.37321636e-01 2.40546703e-01
      2.27375194e-01 9.59364027e-02 1.01692632e-01 1.06839381e-01
      7.22333565e-02 9.62833837e-02 2.30605587e-01 1.31954953e-01
      2.40546703e-01 1.89443216e-01 1.04586817e-01 1.33114159e-01
      1.24892674e-01 8.63096416e-02 9.36630145e-02 2.40546703e-01
      2.40546703e-01 2.40546703e-01 2.40546703e-01 2.21272752e-01
      1.63101122e-01 2.42784508e-02 5.84985465e-02 1.01120912e-01
      2.32038721e-01 1.15439102e-01 7.77940005e-02 5.64892255e-02
      1.81162089e-01 1.69532791e-01 1.00361526e-01 2.34206170e-01
      1.46975026e-01 3.53917211e-01 1.95099264e-01 1.38887078e-01
      1.16515674e-01 2.20537513e-01 1.94696158e-01 8.38408060e-03
      2.24202573e-02 9.20892060e-02 2.75147498e-01 1.29690140e-01
      7.45320320e-02 3.66278514e-02 2.06331760e-01 1.87357783e-01
      6.97458759e-02 3.29534486e-02 6.95000812e-02 3.53917211e-01
      2.35425860e-01 9.91846919e-02 1.15268730e-01 2.18304545e-01
      1.33518711e-01 1.73400328e-01 1.38169110e-01 1.17993549e-01
      3.09672117e-01 9.87973809e-02 1.71771273e-01 6.71378374e-02
      9.33743268e-02 2.51075357e-01 1.25205830e-01 7.11383969e-02
      7.56135285e-02 1.92129418e-01 3.61905955e-02 1.23835400e-01
      2.94461008e-02 1.85958013e-01 2.97979534e-01 2.27809832e-01
      8.29987153e-02 5.11915646e-02 3.09672117e-01 1.25249997e-01
      8.02168325e-02 8.78686458e-02 2.23219573e-01 3.09672117e-01
      2.07165301e-01 8.22696909e-02 3.71643789e-02 1.30197406e-01
      2.18590610e-02 4.33877222e-02 3.42188105e-02 3.09672117e-01
      2.35409528e-01 6.30438477e-02 5.80902882e-02 7.63199329e-02
      2.14066669e-01 6.74545765e-02 7.49339312e-02 6.21344410e-02
      2.42417172e-01 1.76037014e-01 9.59576219e-02 1.10163949e-01
      9.16868076e-02 2.79143035e-01 1.50376022e-01 8.59147832e-02
      1.49778366e-01 1.72049016e-01 2.79143035e-01 1.44076392e-01
      1.19208716e-01 1.15370139e-01 2.66584635e-01 3.24368291e-02
      7.53401741e-02 6.11964352e-02 2.79143035e-01 2.79143035e-01
      1.60989538e-01 1.65525317e-01 1.39193401e-01 2.79143035e-01
      7.59566054e-02 1.17065012e-01 1.30298987e-01 1.96641952e-01
      1.58692971e-01 6.49350956e-02 8.49895030e-02 9.94075686e-02
      2.41409749e-01 1.34155795e-01 7.63792843e-02 7.05406144e-02
      2.21399650e-01 2.52215207e-01 8.62341672e-02 6.41067922e-02
      7.25932270e-02 2.52215207e-01 2.52215207e-01 1.47055075e-01
      1.78910360e-01 2.52215207e-01 1.72262594e-01 1.17395185e-01
      1.12979762e-01 1.25024319e-01 1.51433975e-01 1.03663214e-01
      1.17330268e-01 1.16297148e-01 2.35980630e-01 2.17100963e-01
      8.38344172e-02 1.07986592e-01 1.11887090e-01 2.05958396e-01
      2.17556790e-01 1.81727618e-01 1.91661671e-01 2.52215207e-01
      2.68141598e-01 2.04625309e-01 1.15563743e-01 4.49079163e-02
      2.68141598e-01 1.43437579e-01 7.40232617e-02 1.17128752e-01
      2.68141598e-01 2.68141598e-01 2.05172658e-01 1.54111743e-01
      6.87668100e-02 1.31939128e-01 2.92563885e-02 2.61155330e-02
      3.71683165e-02 2.68141598e-01 1.91578150e-01 6.77218288e-02
      1.10175744e-01 9.81572345e-02 2.12414712e-01 1.36953592e-01
      7.65489638e-02 1.36203617e-01 2.68141598e-01 2.06016868e-01
      1.07066788e-01 1.74115762e-01 1.36877999e-01 2.64184475e-01
      9.29235965e-02 5.37181161e-02 9.35610607e-02 1.83376923e-01
      2.41582870e-01 1.96545333e-01 2.10108817e-01 1.51936740e-01
      1.85705200e-01 3.90795134e-02 7.52447769e-02 6.37542233e-02
      2.41582870e-01 2.35395640e-01 1.75797239e-01 1.71036348e-01
      1.19563602e-01 2.21721604e-01 1.34621158e-01 2.33127058e-01
      1.85929298e-01 1.18469410e-01 1.22311309e-01 1.23213679e-01
      2.41582870e-01 1.56551957e-01 2.03542933e-01 9.83239859e-02
      7.68867061e-02 7.99020231e-02 6.32047728e-02 5.51589541e-02
      1.14365436e-01 2.41582870e-01 1.32298723e-01 2.23889396e-01
      1.62597209e-01 2.40937099e-01 1.38090044e-01 5.55690378e-02</_>
    <_>
      1.35355160e-01 1.86354578e-01 2.15654999e-01 1.35456532e-01
      9.13952589e-02 4.36527655e-02 2.31492054e-02 3.33406404e-02
      1.00468129e-01 1.79508075e-01 2.41816878e-01 2.47279957e-01
      1.63043916e-01 5.99062368e-02 3.84064540e-02 8.48539099e-02
      1.30303547e-01 1.35896906e-01 1.83954716e-01 2.47279957e-01
      2.47279957e-01 2.47279957e-01 2.47279957e-01 5.41314185e-02
      5.25203347e-02 4.39012572e-02 1.24716975e-01 2.25228846e-01
      2.35844120e-01 2.47279957e-01 2.47279957e-01 2.47279957e-01
      6.21879771e-02 7.44798183e-02 9.70863625e-02 1.45780280e-01
      2.02224821e-01 1.48871928e-01 2.38324746e-01 1.04091480e-01
      7.34155849e-02 4.08542305e-02 2.42030889e-01 2.42030889e-01
      1.67365551e-01 1.44924611e-01 3.82439308e-02 3.47848944e-02
      3.67527828e-02 1.08519077e-01 3.75586897e-02 1.58483893e-01
      1.84419096e-01 1.48217469e-01 2.42030889e-01 9.24904719e-02
      2.37950712e-01 2.42030889e-01 2.42030889e-01 6.76112399e-02
      2.42030889e-01 2.42030889e-01 2.08002776e-01 1.03882954e-01
      8.60950258e-03 4.38732356e-02 1.52294755e-01 2.42030889e-01
      5.92921041e-02 1.80171445e-01 2.12549433e-01 1.17167264e-01
      1.52869970e-01 3.39053757e-02 2.91961301e-02 6.62985891e-02
      9.07964036e-02 1.06367454e-01 7.47427568e-02 2.01978236e-01
      2.40204647e-01 2.53141791e-01 7.63767660e-02 1.67755365e-01
      2.12787554e-01 2.48654023e-01 2.53141791e-01 6.13252670e-02
      2.53141791e-01 2.53141791e-01 5.53932302e-02 9.40410607e-03
      2.06202902e-02 3.47824916e-02 1.83229163e-01 5.00018410e-02
      3.22468579e-02 3.41126323e-02 6.26070127e-02 2.53141791e-01
      1.99821442e-01 2.53141791e-01 1.95362031e-01 2.53141791e-01
      1.85342535e-01 4.52553146e-02 1.58407733e-01 2.53141791e-01
      1.82079479e-01 2.03239828e-01 1.51259661e-01 2.06993595e-01
      3.58388782e-01 7.74649680e-02 5.82120121e-02 4.08059992e-02
      1.02129124e-01 2.14449078e-01 1.21297203e-01 1.25322998e-01
      2.25642085e-01 3.58388782e-01 1.14472471e-01 2.98489537e-02
      1.52272014e-02 1.20263904e-01 6.87698200e-02 4.27640490e-02
      6.25201911e-02 7.76421577e-02 3.58388782e-01 9.60551947e-02
      1.20950527e-01 3.39225493e-02 3.99455242e-02 1.89642549e-01
      8.33056718e-02 2.25239620e-02 8.09120387e-02 3.58388782e-01
      1.89424857e-01 1.27415806e-01 3.62560190e-02 1.35944590e-01
      1.74494579e-01 5.54842390e-02 5.24667762e-02 2.24861637e-01
      3.07784051e-01 4.64859083e-02 3.86497527e-02 4.07171175e-02
      1.35087669e-01 2.84708261e-01 1.06602065e-01 5.77784330e-02
      1.01215474e-01 2.10741103e-01 1.72641296e-02 2.32245736e-02
      2.99034975e-02 1.60393894e-01 3.07784051e-01 2.09174380e-01
      6.21333458e-02 9.06560570e-02 3.07784051e-01 8.69335532e-02
      8.82985219e-02 1.82228591e-02 2.24050477e-01 3.07784051e-01
      3.07784051e-01 1.10888012e-01 2.33234409e-02 7.23779798e-02
      1.32931639e-02 1.68588739e-02 1.38882070e-03 3.07784051e-01
      2.81289428e-01 1.09384231e-01 3.84089649e-02 1.83409490e-02
      6.54212013e-02 1.84021406e-02 1.30011830e-02 2.62033404e-03
      1.23483472e-01 2.73144096e-01 1.53224349e-01 1.20587222e-01
      8.11186805e-02 1.79291010e-01 8.87372643e-02 1.03848793e-01
      2.54033599e-02 1.63234949e-01 2.81289428e-01 2.81289428e-01
      1.32258758e-01 2.93278024e-02 8.50149691e-02 3.07681672e-02
      2.08111946e-02 1.91822287e-03 2.76806027e-01 2.81289428e-01
      2.81289428e-01 2.21475288e-01 1.44790202e-01 2.81289428e-01
      1.26415327e-01 1.62395805e-01 5.41589446e-02 2.69143879e-01
      1.61003172e-02 4.17598709e-03 2.01126169e-02 5.95046468e-02
      2.51765013e-01 1.03396006e-01 2.51765013e-01 1.44689679e-01
      2.09797733e-02 2.51765013e-01 9.29581225e-02 3.71813662e-02
      1.44577902e-02 2.51765013e-01 2.02359036e-01 2.51765013e-01
      1.32806048e-01 2.51765013e-01 6.16025515e-02 7.79479370e-02
      3.91530655e-02 4.45238277e-02 1.33540988e-01 4.28728387e-02
      2.51765013e-01 2.42813781e-01 6.33858964e-02 2.51765013e-01
      2.18946815e-01 1.13098897e-01 1.06068507e-01 1.59973070e-01
      3.91180851e-02 2.51765013e-01 2.51765013e-01 2.51765013e-01
      2.77068049e-01 2.34008670e-01 7.48132616e-02 1.15397284e-02
      1.61696091e-01 7.01925457e-02 8.88785124e-02 4.11540642e-02
      2.77068049e-01 2.77068049e-01 2.77068049e-01 1.47259161e-01
      2.58766189e-02 1.74080189e-02 2.49273572e-02 1.15631260e-02
      5.97394397e-03 2.56565809e-01 2.77068049e-01 1.71400949e-01
      1.59031048e-01 9.50975269e-02 1.11398071e-01 5.40119037e-02
      9.57596451e-02 8.01002607e-02 1.66643411e-01 2.77068049e-01
      2.65041769e-01 2.63194829e-01 7.69790933e-02 9.10304710e-02
      1.39384180e-01 5.10200076e-02 7.92957991e-02 2.04340935e-01
      2.21691042e-01 2.21691042e-01 1.71381190e-01 4.59816493e-02
      5.77852577e-02 5.46189994e-02 1.60323605e-02 1.18863126e-02
      1.32680923e-01 2.21258685e-01 2.21691042e-01 2.21630931e-01
      9.77313891e-02 2.21691042e-01 1.47385240e-01 1.61264211e-01
      1.09812587e-01 1.56627387e-01 1.91934913e-01 1.92258656e-01
      2.21691042e-01 9.00084078e-02 1.22858994e-01 1.29542097e-01
      4.28782329e-02 1.10992856e-01 1.66205525e-01 1.59746885e-01
      2.01034129e-01 2.21691042e-01 1.37927487e-01 2.21691042e-01
      2.04550385e-01 2.03625455e-01 2.21691042e-01 1.81736276e-01</_>
    <_>
      1.31850466e-01 8.41323361e-02 1.84140563e-01 9.64815468e-02
      1.59814000e-01 5.11804409e-02 8.44127387e-02 4.86587882e-02
      9.91254523e-02 2.40109563e-01 1.56614751e-01 2.46765092e-01
      1.64312318e-01 1.39570296e-01 3.45020443e-02 1.85788229e-01
      1.25761777e-01 2.46765092e-01 1.85180783e-01 9.84839201e-02
      2.13637814e-01 1.03384949e-01 2.46765092e-01 8.61048400e-02
      1.32890016e-01 6.86752424e-02 1.51109740e-01 2.21247882e-01
      1.96611762e-01 2.46765092e-01 1.20543413e-01 2.46765092e-01
      7.79700801e-02 2.19700262e-01 1.65543765e-01 2.46765092e-01
      2.40320727e-01 1.15154810e-01 1.52065352e-01 1.92827493e-01
      9.14953500e-02 7.95741603e-02 2.13717178e-01 1.58868447e-01
      2.40320727e-01 2.40320727e-01 8.67876932e-02 2.92832814e-02
      1.37489587e-01 8.00248086e-02 2.08909810e-01 1.19707361e-01
      1.08723432e-01 2.40320727e-01 2.29497582e-01 1.17393620e-01
      2.40320727e-01 8.96891803e-02 2.40320727e-01 9.66468006e-02
      2.40320727e-01 2.33274803e-01 2.40320727e-01 1.31400809e-01
      2.59507243e-02 3.90750170e-02 5.15726022e-02 2.40320727e-01
      9.38494578e-02 1.35530978e-01 9.94318426e-02 1.33021593e-01
      1.52128264e-01 1.09890930e-01 1.89289171e-02 8.53318870e-02
      1.47726431e-01 2.26927280e-01 2.12586388e-01 2.06989899e-01
      2.18567893e-01 2.26927280e-01 1.90889180e-01 5.61720990e-02
      1.34724498e-01 2.26927280e-01 2.26927280e-01 2.26927280e-01
      2.26927280e-01 2.26927280e-01 9.17289108e-02 5.59863634e-02
      7.95371365e-03 4.86055613e-02 1.42622486e-01 1.03370868e-01
      7.40329176e-02 8.86442736e-02 1.02550134e-01 2.26927280e-01
      1.59391940e-01 5.22913970e-02 2.26927280e-01 2.26927280e-01
      1.53053224e-01 1.42080307e-01 1.80086359e-01 2.26927280e-01
      1.44109294e-01 4.70398366e-02 8.17273334e-02 3.97276320e-02
      3.46833676e-01 1.05106287e-01 1.11104712e-01 8.45656693e-02
      1.80244967e-01 1.73579633e-01 6.60603344e-02 1.86398834e-01
      7.37492964e-02 3.66273731e-01 1.29377857e-01 5.67514300e-02
      6.49612993e-02 2.56254196e-01 1.61191851e-01 3.69554088e-02
      4.13997248e-02 7.29344860e-02 3.08188587e-01 7.28484690e-02
      1.26149535e-01 1.38149932e-01 9.70056280e-02 1.47894993e-01
      4.44123112e-02 2.77235880e-02 3.85260135e-02 3.66273731e-01
      1.31979018e-01 2.74238676e-01 1.51161611e-01 1.68198392e-01
      1.65272757e-01 6.76372647e-02 9.17104259e-02 4.87413593e-02
      3.11471432e-01 8.26214030e-02 7.05066025e-02 5.40071093e-02
      1.43721446e-01 2.28351370e-01 8.17162618e-02 4.40363586e-02
      2.13818811e-02 2.66549796e-01 3.13037969e-02 3.46821062e-02
      3.02436072e-02 1.79466188e-01 3.02521169e-01 1.60426632e-01
      6.81920797e-02 1.67087056e-02 3.11471432e-01 8.99701342e-02
      1.57415807e-01 1.08478621e-01 2.68890500e-01 3.11471432e-01
      3.11471432e-01 9.73912179e-02 1.23627679e-02 1.19915411e-01
      2.33002231e-02 2.53012683e-02 4.32020240e-02 3.11471432e-01
      1.99932888e-01 6.21585622e-02 1.53999953e-02 3.14766392e-02
      1.78479135e-01 2.81386711e-02 1.47384955e-02 4.68295030e-02
      1.88045591e-01 2.02782124e-01 1.10004023e-01 4.83214594e-02
      2.24559322e-01 2.64556795e-01 1.32222146e-01 8.76680985e-02
      1.06066026e-01 1.59291476e-01 2.64556795e-01 2.64556795e-01
      1.26139089e-01 5.27162962e-02 2.09617168e-01 3.26676443e-02
      3.99875119e-02 1.25528038e-01 2.64556795e-01 2.41400138e-01
      2.17220977e-01 1.34555742e-01 1.71289787e-01 2.64556795e-01
      1.39215857e-01 1.61787570e-01 2.38376051e-01 1.66762963e-01
      1.82918414e-01 9.42715630e-02 1.38813615e-01 1.36820495e-01
      2.40002543e-01 7.60366917e-02 2.20982596e-01 1.80013239e-01
      6.46837354e-02 2.40002543e-01 1.13940418e-01 9.98002216e-02
      5.96008971e-02 2.40002543e-01 1.28646195e-01 2.40002543e-01
      2.40002543e-01 2.38033235e-01 1.30809724e-01 2.39624798e-01
      2.40002543e-01 1.12208851e-01 1.04859941e-01 5.69964983e-02
      1.00847654e-01 4.61534671e-02 5.92279173e-02 2.40002543e-01
      2.38814518e-01 2.31593058e-01 9.80042964e-02 1.38216868e-01
      1.26860872e-01 1.39007449e-01 8.65730569e-02 1.53905049e-01
      2.73067385e-01 1.84799194e-01 9.74497795e-02 2.54199114e-02
      1.84848830e-01 6.27831742e-02 1.89599186e-01 1.30961865e-01
      2.73067385e-01 2.73067385e-01 2.72616833e-01 1.28008112e-01
      1.03986226e-01 9.76443216e-02 5.52196503e-02 3.89404036e-02
      3.95913236e-02 2.73067385e-01 1.98887974e-01 1.23562790e-01
      9.04362798e-02 6.72463551e-02 1.21089742e-01 1.17883779e-01
      7.13498890e-02 7.65312985e-02 1.40883639e-01 2.73067385e-01
      2.48272926e-01 1.32128268e-01 2.00286657e-01 1.93094075e-01
      1.37932703e-01 7.26209953e-02 8.75879154e-02 2.37495437e-01
      2.29942113e-01 2.29942113e-01 1.72642842e-01 1.61328107e-01
      1.60538658e-01 8.62045512e-02 7.70861804e-02 9.13282260e-02
      2.29942113e-01 1.53148770e-01 2.23392814e-01 1.40239343e-01
      1.12514690e-01 1.91880330e-01 1.30908653e-01 1.45870134e-01
      1.55172572e-01 8.32011327e-02 2.29942113e-01 2.29942113e-01
      1.80667266e-01 2.24972397e-01 1.89226925e-01 1.26414225e-01
      8.09737220e-02 8.96318704e-02 1.87637120e-01 2.13607475e-01
      2.17588991e-01 1.34621009e-01 1.29102290e-01 2.25890696e-01
      1.74065530e-01 1.10593945e-01 8.50520507e-02 6.85818419e-02</_>
    <_>
      8.28249604e-02 2.38065183e-01 2.41982535e-01 2.41982535e-01
      1.93929121e-01 1.02462985e-01 4.88424972e-02 7.58428350e-02
      5.32160103e-02 3.84300649e-02 1.34864479e-01 2.41982535e-01
      2.41982535e-01 1.89733043e-01 8.42026621e-02 7.61776119e-02
      1.24039784e-01 6.88301921e-02 8.52647349e-02 1.88548505e-01
      2.28481099e-01 2.41982535e-01 1.95400059e-01 2.24998593e-01
      9.43558812e-02 2.02794135e-01 1.66588888e-01 3.85320708e-02
      5.56256212e-02 8.04513767e-02 1.27680391e-01 2.41982535e-01
      2.41982535e-01 1.34407043e-01 2.33329833e-01 1.22183211e-01
      8.21835399e-02 1.26928613e-01 2.44171724e-01 1.25464141e-01
      1.45145237e-01 1.02225080e-01 2.21671864e-01 1.59291744e-01
      4.94880565e-02 6.48102090e-02 7.93968886e-02 1.87885508e-01
      2.09697992e-01 2.44171724e-01 2.16988519e-01 2.44171724e-01
      9.76568311e-02 1.50618488e-02 7.20565245e-02 9.36008021e-02
      1.73877895e-01 1.85150951e-01 2.44171724e-01 1.81586206e-01
      9.25511047e-02 1.51437521e-01 1.04098663e-01 2.44171724e-01
      1.31935135e-01 2.44171724e-01 2.44171724e-01 2.44171724e-01
      1.25225350e-01 5.76961525e-02 7.41136968e-02 1.76645547e-01
      4.16428074e-02 3.46489549e-02 7.46001527e-02 1.20422706e-01
      2.69219607e-01 1.73720956e-01 1.43422440e-01 3.17101926e-02
      2.64707990e-02 1.24287903e-01 6.38637021e-02 1.69536285e-02
      9.29890350e-02 2.69219607e-01 2.69219607e-01 2.19963446e-01
      6.66773021e-02 1.37713522e-01 2.69219607e-01 9.36853290e-02
      1.17533058e-01 1.14768088e-01 2.06673861e-01 8.33615735e-02
      3.38693820e-02 9.99173224e-02 2.69219607e-01 2.69219607e-01
      9.84462872e-02 7.00260103e-02 2.55761176e-01 2.69219607e-01
      1.36337280e-01 7.03001693e-02 2.04128668e-01 2.69219607e-01
      4.30383980e-02 6.13430105e-02 4.25885059e-02 1.05422214e-01
      2.63941973e-01 2.63941973e-01 9.33518931e-02 1.52249172e-01
      1.43406495e-01 1.42236259e-02 1.42514510e-02 1.58614982e-02
      6.10819012e-02 2.63941973e-01 2.63941973e-01 9.21374932e-02
      8.46220031e-02 4.40761447e-02 1.32930338e-01 2.63941973e-01
      2.63941973e-01 1.81634352e-01 2.63941973e-01 2.63941973e-01
      1.31110087e-01 8.43825787e-02 7.55924806e-02 1.03089660e-01
      8.86929780e-02 9.19621289e-02 7.80461133e-02 2.22569644e-01
      2.63941973e-01 2.38874540e-01 2.21786931e-01 8.87380764e-02
      9.58468765e-02 3.29812616e-02 3.40191983e-02 7.53370002e-02
      3.05777758e-01 2.27123141e-01 8.17917287e-02 1.23283938e-01
      1.36749193e-01 3.05777758e-01 9.77282152e-02 5.76422811e-02
      5.81561588e-02 9.52410772e-02 5.84214292e-02 4.72681448e-02
      1.21977240e-01 3.05777758e-01 3.05777758e-01 5.65996319e-02
      1.02311894e-02 1.70413218e-02 1.00415833e-01 2.21853018e-01
      1.54775515e-01 2.47205645e-01 2.78288394e-01 3.05777758e-01
      2.12111115e-01 2.74042021e-02 2.92052841e-03 7.46951858e-03
      1.48832276e-02 2.71326508e-02 9.29259434e-02 3.05777758e-01
      2.86333889e-01 6.48640692e-02 1.65864732e-02 1.47918789e-02
      1.48715302e-02 1.09503735e-02 1.55517301e-02 8.03322643e-02
      2.79505372e-01 2.86333889e-01 9.99851376e-02 8.32668617e-02
      9.66053754e-02 8.81202966e-02 7.81244412e-02 7.33425394e-02
      1.60153612e-01 2.54764020e-01 2.86333889e-01 2.86333889e-01
      1.57832995e-01 1.92978866e-02 1.17819775e-02 3.96594452e-03
      1.76300053e-02 4.63965535e-02 2.10875854e-01 2.86333889e-01
      2.86333889e-01 2.86333889e-01 1.75013348e-01 1.70773327e-01
      7.04701319e-02 5.93018979e-02 8.03062320e-02 2.24072397e-01
      1.96576387e-01 2.60932148e-01 2.60932148e-01 2.29840606e-01
      1.15164325e-01 1.57227576e-01 1.14651091e-01 8.61396715e-02
      9.05590951e-02 1.72349155e-01 1.74207851e-01 1.23524711e-01
      4.89830710e-02 8.11306238e-02 2.60932148e-01 2.60932148e-01
      2.60932148e-01 1.34672821e-01 1.93996370e-01 1.69398040e-01
      2.60932148e-01 2.15376645e-01 9.19093713e-02 1.22798838e-01
      4.92622182e-02 5.76063953e-02 1.21603809e-01 1.07458413e-01
      1.18879452e-01 9.91477743e-02 7.64140636e-02 2.20075309e-01
      2.14617297e-01 1.14983097e-01 1.07700326e-01 1.03881158e-01
      3.12652200e-01 9.79195759e-02 6.41487241e-02 1.81122608e-02
      1.31125718e-01 1.20654032e-01 1.27953619e-01 2.08777338e-01
      2.03123838e-01 3.12652200e-01 2.20562235e-01 1.02816574e-01
      2.25604344e-02 1.16548687e-01 4.27058563e-02 1.92346405e-02
      4.79638651e-02 3.05006057e-01 1.53763697e-01 8.29430073e-02
      8.12362656e-02 5.62705509e-02 3.12652200e-01 1.77886695e-01
      5.92278540e-02 6.37900531e-02 9.69865173e-02 3.12652200e-01
      9.61547270e-02 1.04277879e-01 5.05796708e-02 3.12652200e-01
      1.89725339e-01 4.23939936e-02 3.74383219e-02 1.98731348e-01
      2.85312742e-01 2.85312742e-01 2.11348400e-01 3.14438343e-02
      8.00383538e-02 1.11639630e-02 9.13965423e-03 1.33580742e-02
      1.31180406e-01 2.85312742e-01 2.85312742e-01 2.85312742e-01
      1.49571165e-01 2.85312742e-01 3.50840203e-02 1.37116453e-02
      2.44004931e-02 1.73911273e-01 2.13079751e-01 1.35338321e-01
      9.67458412e-02 4.94009070e-02 2.65837491e-01 5.48574775e-02
      1.53670805e-02 2.14907080e-02 1.05211899e-01 2.19023526e-01
      1.31488502e-01 1.30518451e-01 1.28616259e-01 2.85312742e-01
      1.13759480e-01 1.32105527e-02 7.13793188e-02 1.58183187e-01</_>
    <_>
      1.18994407e-01 1.29874676e-01 2.18710184e-01 1.09233163e-01
      9.01149735e-02 4.79596779e-02 3.60047780e-02 9.82565880e-02
      7.89755061e-02 2.09619254e-01 1.94281384e-01 2.79632777e-01
      1.04623400e-01 1.50075004e-01 6.17407858e-02 1.06122404e-01
      1.58370733e-01 2.47795001e-01 7.99088404e-02 2.33290732e-01
      2.79632777e-01 1.36836648e-01 1.89973876e-01 8.02773759e-02
      7.39016682e-02 6.41805530e-02 3.09166685e-02 1.44036621e-01
      2.79632777e-01 2.79632777e-01 1.09429941e-01 2.22659588e-01
      1.00875318e-01 1.22433648e-01 1.90861896e-01 2.69844890e-01
      2.24648625e-01 1.06701255e-01 1.70948073e-01 1.23160586e-01
      1.11312240e-01 8.93560201e-02 1.45894960e-01 1.44267902e-01
      2.24648625e-01 2.24648625e-01 8.22799802e-02 2.03644425e-01
      1.98878616e-01 2.24648625e-01 1.56369239e-01 8.82949978e-02
      8.63778517e-02 2.24648625e-01 1.81147993e-01 1.77582890e-01
      2.24648625e-01 7.05745295e-02 2.02723011e-01 2.24648625e-01
      2.24648625e-01 2.24648625e-01 2.24648625e-01 1.10455744e-01
      3.56718451e-02 7.48466551e-02 6.28455281e-02 1.35996342e-01
      2.13962466e-01 1.27232298e-01 1.21619575e-01 1.36475503e-01
      1.28414780e-01 1.22881278e-01 2.66588598e-01 2.12466538e-01
      2.66588598e-01 1.59636036e-01 8.78371820e-02 1.71506032e-01
      2.66588598e-01 1.26251742e-01 1.61045074e-01 1.73880205e-01
      1.82974443e-01 2.66588598e-01 1.16667226e-01 7.06377104e-02
      1.13029338e-01 1.81942746e-01 9.38763544e-02 4.35982011e-02
      6.72696084e-02 7.41968453e-02 9.47483927e-02 5.04399277e-02
      4.06260192e-02 1.04823977e-01 2.09216818e-01 2.29221910e-01
      1.37808949e-01 2.53867984e-01 1.71183616e-01 2.57860422e-01
      1.01592749e-01 7.35205635e-02 1.19769424e-01 2.30474114e-01
      5.68589978e-02 1.21549375e-01 2.81336069e-01 9.73824412e-02
      2.98834890e-01 1.22434072e-01 9.97443423e-02 5.87809123e-02
      5.16471565e-02 8.31643045e-02 2.16453627e-01 3.22715133e-01
      1.22510649e-01 3.22715133e-01 1.53681755e-01 9.13419798e-02
      9.32068303e-02 1.85320362e-01 7.73712248e-02 5.61133213e-02
      9.36779231e-02 9.22538787e-02 3.22715133e-01 1.48601323e-01
      6.85128048e-02 4.67374139e-02 5.30294180e-02 1.54010311e-01
      1.16277687e-01 7.60642886e-02 6.22264035e-02 3.22715133e-01
      2.35692754e-01 6.73224553e-02 9.20745805e-02 1.89124450e-01
      1.39314890e-01 1.28120840e-01 1.68258786e-01 8.85522589e-02
      2.92534620e-01 1.79630145e-01 7.85725191e-02 8.52358416e-02
      1.37731403e-01 2.03721613e-01 1.40602678e-01 9.22046080e-02
      3.59360836e-02 1.52862281e-01 1.22513071e-01 3.99002582e-02
      3.16567421e-02 1.32919878e-01 2.92534620e-01 2.61613131e-01
      5.69233224e-02 5.34185283e-02 2.92534620e-01 1.67340040e-01
      5.23253605e-02 8.08713809e-02 2.58378208e-01 2.92534620e-01
      2.92534620e-01 1.71827301e-01 1.94231737e-02 7.88280219e-02
      3.86692397e-02 1.59785245e-02 2.86593847e-02 2.92534620e-01
      1.79046199e-01 1.91715643e-01 1.06140792e-01 1.41204707e-02
      9.17598978e-02 4.73081470e-02 3.51819284e-02 5.02085052e-02
      1.87159657e-01 1.26427531e-01 1.80246472e-01 2.17926547e-01
      5.23953624e-02 2.21172184e-01 9.92321745e-02 1.34589300e-01
      1.26897067e-01 1.64637476e-01 2.86311954e-01 2.86311954e-01
      2.86311954e-01 1.53613258e-02 1.01777360e-01 6.66914806e-02
      3.94916125e-02 7.82347098e-02 2.86311954e-01 1.40013412e-01
      2.86311954e-01 2.00095087e-01 4.24181819e-02 2.86311954e-01
      1.23086482e-01 1.12879023e-01 1.46675065e-01 1.52324781e-01
      1.32586822e-01 7.30479583e-02 9.36941803e-02 8.37263986e-02
      1.95075661e-01 2.03475341e-01 9.84543636e-02 1.56871110e-01
      6.50519058e-02 2.53268450e-01 1.32582635e-01 4.38023210e-02
      3.80965583e-02 2.53268450e-01 2.36242443e-01 8.96337554e-02
      2.00251773e-01 2.53268450e-01 1.60368145e-01 1.03167631e-01
      1.13365278e-01 5.38449585e-02 1.03651114e-01 2.04546466e-01
      1.78685218e-01 2.41750151e-01 1.05293415e-01 2.53268450e-01
      1.69966608e-01 1.08829215e-01 7.00148195e-02 8.45529437e-02
      2.53268450e-01 1.76294059e-01 2.02471957e-01 2.53268450e-01
      2.53855675e-01 2.08557099e-01 3.66283767e-02 2.37348732e-02
      1.53675482e-01 8.12343881e-02 5.18306866e-02 5.87580353e-02
      2.53855675e-01 2.53855675e-01 2.53855675e-01 2.26236135e-01
      3.67049426e-02 3.75250019e-02 1.59995425e-02 5.96962459e-02
      3.59460711e-02 2.30278641e-01 2.53855675e-01 1.11326471e-01
      9.51022059e-02 8.82631168e-02 6.26160651e-02 8.10137987e-02
      8.85718539e-02 3.01471520e-02 2.53855675e-01 2.27072373e-01
      2.20639423e-01 2.53855675e-01 1.78416222e-01 2.53855675e-01
      7.28855878e-02 1.67519569e-01 9.86305103e-02 2.53855675e-01
      2.86501437e-01 2.87764460e-01 2.87764460e-01 5.75828105e-02
      2.26813346e-01 2.25890446e-02 2.73914021e-02 4.65566255e-02
      1.59399226e-01 5.89750670e-02 2.05011755e-01 9.79778841e-02
      7.31071830e-02 2.87764460e-01 5.31727746e-02 1.33876670e-02
      3.84830646e-02 4.31615561e-02 1.35505125e-01 2.57120878e-01
      2.87764460e-01 2.20924914e-01 2.87764460e-01 8.59613568e-02
      1.26604617e-01 8.25385600e-02 1.94145218e-01 3.02148201e-02
      8.31793845e-02 1.46706119e-01 1.63723439e-01 2.87764460e-01
      9.08683613e-02 3.20296660e-02 2.53132060e-02 2.24723537e-02</_>
    <_>
      5.01411259e-02 5.83417080e-02 2.28210062e-01 1.44742593e-01
      1.44849077e-01 1.01060465e-01 2.09235385e-01 1.83677733e-01
      8.52229074e-02 4.36578207e-02 1.31049290e-01 2.56116062e-01
      2.16118589e-01 1.19534515e-01 1.02911778e-01 1.17409363e-01
      1.48115993e-01 9.74344015e-02 6.79107383e-02 6.27238899e-02
      1.47301614e-01 2.56116062e-01 2.06094831e-01 1.88066661e-01
      2.02465504e-01 1.73880026e-01 6.90623224e-02 6.43881634e-02
      3.82986888e-02 1.60007745e-01 2.19657362e-01 2.56116062e-01
      2.56116062e-01 2.45522141e-01 2.56116062e-01 1.21768847e-01
      4.75171283e-02 1.16431467e-01 2.46099636e-01 9.31205004e-02
      7.67888576e-02 6.84584007e-02 2.46099636e-01 1.67019650e-01
      1.11132398e-01 5.87321706e-02 9.11813751e-02 7.89139941e-02
      1.36605710e-01 2.46099636e-01 1.95872501e-01 2.46099636e-01
      1.96055219e-01 6.41671792e-02 7.08069801e-02 1.02264345e-01
      1.58908755e-01 1.79651648e-01 2.46099636e-01 2.45945826e-01
      1.44584194e-01 1.51972890e-01 1.05018601e-01 1.71350405e-01
      1.98419675e-01 2.46099636e-01 2.46099636e-01 2.46099636e-01
      1.49991438e-01 1.03437714e-01 5.01179807e-02 1.64850444e-01
      5.33293746e-02 5.61983101e-02 4.01682556e-02 1.39462158e-01
      2.54329383e-01 1.94088936e-01 2.26810932e-01 1.12941407e-01
      3.15213017e-02 4.85259071e-02 1.88081935e-02 9.59068537e-03
      8.11965913e-02 2.54329383e-01 2.54329383e-01 2.54329383e-01
      1.18977748e-01 5.71616702e-02 2.54329383e-01 1.20770335e-01
      1.45732880e-01 2.09723368e-01 2.54329383e-01 1.02806002e-01
      6.75747246e-02 4.67991531e-02 2.54329383e-01 2.54329383e-01
      2.53435485e-02 5.85095733e-02 2.03509107e-01 2.54329383e-01
      1.82681575e-01 9.44242701e-02 9.47403386e-02 2.54329383e-01
      4.62959297e-02 4.92284931e-02 8.94420668e-02 2.58175492e-01
      2.39372626e-01 2.52167344e-01 1.27948061e-01 7.22379833e-02
      8.00276101e-02 2.63540726e-02 1.56097272e-02 2.70818174e-02
      1.25003636e-01 2.76417673e-01 2.76417673e-01 1.52107298e-01
      1.36332050e-01 5.65728471e-02 8.11495185e-02 7.27537870e-02
      1.15392186e-01 1.01097025e-01 2.14711949e-01 2.76417673e-01
      2.05193192e-01 1.22359939e-01 2.19081506e-01 5.70929945e-02
      4.98986691e-02 3.91423255e-02 5.26555553e-02 2.76417673e-01
      2.76417673e-01 2.76417673e-01 1.45842537e-01 1.74817666e-01
      4.75166664e-02 1.82936694e-02 3.44451815e-02 9.68692750e-02
      2.96219677e-01 2.87328035e-01 9.44262072e-02 9.20010284e-02
      1.10261336e-01 2.96219677e-01 5.17338850e-02 7.98250586e-02
      1.08629301e-01 1.59616694e-01 8.94425511e-02 6.77442923e-02
      7.23498836e-02 2.96219677e-01 2.58433580e-01 1.23311561e-02
      4.67393873e-03 3.17716673e-02 2.44976521e-01 2.96219677e-01
      1.41597584e-01 1.68056980e-01 2.96219677e-01 2.96219677e-01
      6.05338514e-02 5.89958671e-03 1.25337224e-02 3.92102376e-02
      5.61961085e-02 3.84016223e-02 8.42924193e-02 2.96219677e-01
      3.01612586e-01 3.43813784e-02 2.78426260e-02 3.08677703e-02
      2.00555492e-02 1.53646953e-02 1.95736699e-02 3.24132144e-02
      3.01612586e-01 3.01612586e-01 2.67532952e-02 4.95953560e-02
      1.33639410e-01 1.04366258e-01 5.16384766e-02 5.99161647e-02
      1.31744444e-01 3.01612586e-01 3.01612586e-01 1.12067260e-01
      5.54377995e-02 3.27516049e-02 1.59145407e-02 2.17699260e-02
      1.63318291e-02 5.27114086e-02 3.01612586e-01 3.01612586e-01
      2.28645608e-01 2.03408778e-01 1.73166722e-01 1.12420909e-01
      9.30763483e-02 7.83574134e-02 1.92724675e-01 3.01612586e-01
      9.40080583e-02 8.91011432e-02 9.35111940e-02 5.36516830e-02
      1.47546992e-01 2.22145259e-01 1.58149704e-01 8.21132511e-02
      1.67366341e-01 1.18249804e-01 9.04825851e-02 9.96932015e-02
      7.20676780e-02 2.41275504e-01 2.42873460e-01 2.44178370e-01
      2.20798135e-01 2.44178370e-01 1.34784713e-01 1.46592006e-01
      1.91520348e-01 2.25817978e-01 2.44178370e-01 1.42669529e-01
      6.30682856e-02 2.81431247e-02 8.49132612e-02 1.25016645e-01
      1.73992589e-01 2.44178370e-01 2.44178370e-01 2.44178370e-01
      8.40692371e-02 9.95202363e-02 1.38924822e-01 1.88263103e-01
      2.60979116e-01 3.03329639e-02 3.17806862e-02 2.73832269e-02
      8.59495103e-02 8.74198452e-02 1.37587473e-01 2.60979116e-01
      2.60979116e-01 2.60979116e-01 6.69736937e-02 3.54572721e-02
      2.69999206e-02 2.03078948e-02 3.68732885e-02 4.92500663e-02
      1.30060241e-01 2.60979116e-01 1.78684294e-01 6.27201647e-02
      8.95785913e-02 1.00168601e-01 1.85610518e-01 2.40897909e-02
      1.32840902e-01 2.42583364e-01 2.60979116e-01 2.60979116e-01
      7.79700354e-02 9.26617086e-02 9.44519341e-02 1.66452944e-01
      2.06955135e-01 2.46186078e-01 2.60979116e-01 2.60979116e-01
      2.31518582e-01 1.09594189e-01 1.10324875e-01 8.69705006e-02
      2.95949969e-02 3.28722000e-02 2.05067974e-02 6.70638829e-02
      1.79233119e-01 2.31518582e-01 2.01998010e-01 2.31518582e-01
      1.64685622e-01 8.67842361e-02 6.24232478e-02 4.95462492e-02
      1.38414249e-01 2.31518582e-01 1.79586202e-01 1.04215853e-01
      1.66486248e-01 2.09476605e-01 1.92141220e-01 1.76862612e-01
      1.21176116e-01 1.60527006e-01 2.06026465e-01 2.31518582e-01
      1.61641389e-01 2.31518582e-01 2.31518582e-01 2.31518582e-01
      1.58612356e-01 6.52249530e-02 1.49059027e-01 2.31518582e-01</_>
    <_>
      1.33524492e-01 7.40526840e-02 1.03519134e-01 6.17518798e-02
      1.18295893e-01 1.23711482e-01 2.15467677e-01 1.09565578e-01
      2.15982407e-01 1.65711373e-01 5.80756925e-02 1.44028172e-01
      7.39036873e-02 1.46662027e-01 1.61660925e-01 2.31894523e-01
      1.72016278e-01 2.31894523e-01 1.42926261e-01 1.02783397e-01
      1.74619272e-01 1.38683215e-01 2.31894523e-01 9.22921449e-02
      1.64052129e-01 1.57157868e-01 2.31894523e-01 1.84248701e-01
      7.15232417e-02 2.31894523e-01 1.25524834e-01 2.31894523e-01
      1.57736912e-01 2.31894523e-01 2.01102048e-01 2.31894523e-01
      1.37104154e-01 3.67617272e-02 6.15787245e-02 7.24410936e-02
      1.74939781e-01 1.25175327e-01 2.69668341e-01 1.98893338e-01
      2.69668341e-01 1.37101889e-01 2.11152788e-02 3.73275019e-02
      2.75311563e-02 6.51513338e-02 3.04127783e-02 2.69668341e-01
      2.69668341e-01 2.69668341e-01 1.32743672e-01 3.54120582e-02
      1.09627590e-01 8.37146938e-02 1.95888400e-01 1.49459809e-01
      2.69668341e-01 2.21548945e-01 2.62174904e-01 6.54781461e-02
      1.68227106e-02 9.24142916e-03 3.24526727e-02 1.15811095e-01
      8.22521374e-02 2.69668341e-01 2.69668341e-01 1.77863106e-01
      1.33582115e-01 2.58682985e-02 4.84418422e-02 4.78417836e-02
      4.60834391e-02 4.75074798e-02 2.81723559e-01 2.81723559e-01
      2.29032487e-01 1.97308838e-01 1.23785727e-01 1.16655014e-01
      1.04461931e-01 5.36041372e-02 8.85554850e-02 2.81723559e-01
      2.81723559e-01 2.81723559e-01 3.25791277e-02 6.53503789e-03
      8.25119484e-03 2.39025503e-02 1.21184498e-01 1.07426941e-01
      2.81723559e-01 2.45091110e-01 7.22998157e-02 1.52758613e-01
      1.73019059e-02 1.24938283e-02 3.59983109e-02 1.27532348e-01
      9.59552154e-02 2.81723559e-01 2.48398855e-01 2.58080333e-01
      1.33788407e-01 9.96522531e-02 9.33717489e-02 1.23187460e-01
      3.07058781e-01 1.24792114e-01 6.53444529e-02 7.03553185e-02
      2.03045890e-01 2.05770940e-01 6.53745830e-02 1.34948805e-01
      1.15007453e-01 3.07058781e-01 1.83194295e-01 1.74751163e-01
      5.83738200e-02 2.20400497e-01 1.30094647e-01 8.43608901e-02
      2.46245842e-02 8.76962543e-02 2.20381081e-01 1.81977779e-01
      1.62864015e-01 5.27491607e-02 1.55931145e-01 1.63453192e-01
      2.95403823e-02 1.76874809e-02 5.68820946e-02 3.07058781e-01
      2.32508257e-01 2.84200430e-01 8.01545754e-02 2.49320775e-01
      1.69352785e-01 5.90317659e-02 5.61215878e-02 1.21270746e-01
      3.25248957e-01 1.32983282e-01 2.55374372e-01 4.80421297e-02
      1.45059749e-01 1.15806825e-01 3.37852165e-02 1.55022284e-02
      5.62764779e-02 1.76775441e-01 7.09598884e-02 2.18039230e-01
      6.01859353e-02 1.17037676e-01 3.25248957e-01 3.43920626e-02
      2.18693074e-02 5.98292165e-02 3.25248957e-01 1.20165564e-01
      1.81587920e-01 6.05558902e-02 3.25248957e-01 3.25248957e-01
      4.13302407e-02 6.26853779e-02 5.01972102e-02 1.22584961e-01
      2.88483929e-02 7.57270828e-02 2.40313858e-02 3.25248957e-01
      1.02453776e-01 1.52019598e-02 1.12568941e-02 1.97340213e-02
      1.37475640e-01 8.03255215e-02 2.88995594e-01 1.15606666e-01
      1.33667007e-01 2.88995594e-01 1.95506811e-02 1.60461273e-02
      2.96308082e-02 1.06244400e-01 6.39719591e-02 2.01263785e-01
      1.07050836e-01 2.88995594e-01 2.88995594e-01 7.62848184e-02
      1.93240061e-01 1.25771746e-01 2.69238144e-01 4.63257581e-02
      1.40291050e-01 6.30847216e-02 2.88995594e-01 2.88995594e-01
      7.04645067e-02 1.38903543e-01 1.17533371e-01 2.48834595e-01
      4.18694541e-02 1.09053522e-01 6.98305890e-02 2.88995594e-01
      1.00656882e-01 5.47230504e-02 1.82778034e-02 7.74948448e-02
      1.42093286e-01 1.90922037e-01 2.90447086e-01 1.11424975e-01
      1.84973851e-01 2.63074249e-01 6.59000725e-02 8.68975930e-03
      2.87687015e-02 2.90447086e-01 2.61578351e-01 2.90447086e-01
      2.90447086e-01 2.90447086e-01 2.75451709e-02 3.58234942e-02
      1.27369873e-02 4.09246683e-02 3.40232365e-02 3.83680873e-02
      1.37029365e-01 6.27483130e-02 5.00583798e-02 1.67797372e-01
      1.09251052e-01 1.30360443e-02 5.29359989e-02 5.68878464e-02
      7.58865029e-02 2.90447086e-01 2.39117891e-01 2.90447086e-01
      3.08390319e-01 2.59730257e-02 1.42041249e-02 5.48459915e-03
      1.26772419e-01 6.31378219e-02 2.03378052e-01 1.24256834e-01
      3.08390319e-01 3.08390319e-01 1.14242263e-01 2.27228552e-01
      4.53879386e-02 5.02114184e-02 1.79850645e-02 4.48327065e-02
      2.58731339e-02 3.08390319e-01 2.59984702e-01 5.43563440e-02
      2.77139265e-02 1.91701539e-02 1.98131762e-02 3.36618610e-02
      1.36276498e-01 1.08663484e-01 3.08390319e-01 3.08390319e-01
      1.57006264e-01 2.63105989e-01 3.95379327e-02 3.52948792e-02
      2.09085140e-02 3.08560953e-02 3.03517543e-02 2.71430016e-01
      2.52754986e-01 1.93986908e-01 2.52754986e-01 1.59458920e-01
      2.39474043e-01 3.72326709e-02 6.06640466e-02 1.93432495e-02
      2.52754986e-01 2.12873101e-01 8.50839987e-02 2.52754986e-01
      1.47125423e-01 2.45887339e-01 3.52326743e-02 3.46842930e-02
      1.23504503e-02 1.60412744e-01 1.97942466e-01 2.48875648e-01
      2.52754986e-01 5.36713116e-02 9.28735361e-02 2.30217949e-02
      1.51694771e-02 1.30068986e-02 1.44982398e-01 1.94532275e-01
      2.52754986e-01 2.47215509e-01 4.31502350e-02 2.05042139e-01
      5.50339632e-02 5.82100265e-02 3.55243348e-02 2.00524181e-01</_>
    <_>
      1.07686169e-01 1.61537260e-01 2.01230839e-01 1.41163588e-01
      2.47053787e-01 1.74458921e-01 3.09710894e-02 4.37799767e-02
      1.32949397e-01 1.38298720e-01 2.47053787e-01 2.47053787e-01
      2.47053787e-01 2.47053787e-01 1.36153296e-01 5.82516417e-02
      3.88404727e-02 1.08404279e-01 7.18226880e-02 5.34716547e-02
      1.26028091e-01 2.25948334e-01 2.47053787e-01 2.47053787e-01
      9.74218324e-02 8.30482915e-02 6.13008589e-02 4.99661528e-02
      3.86621021e-02 1.41008809e-01 2.05365404e-01 2.47053787e-01
      2.47053787e-01 1.88741878e-01 1.99616089e-01 9.04164836e-02
      1.14272006e-01 1.93847716e-01 2.55013883e-01 1.63962632e-01
      1.53469682e-01 1.04320444e-01 2.40128785e-01 1.02609977e-01
      6.84093237e-02 6.46881387e-02 8.36547241e-02 8.43371302e-02
      1.73887983e-01 2.55013883e-01 2.52243549e-01 2.55013883e-01
      1.14428110e-01 2.39490755e-02 8.62760916e-02 9.90445390e-02
      9.55908671e-02 2.39710718e-01 2.55013883e-01 2.30358064e-01
      1.30553454e-01 1.21526979e-01 8.99219811e-02 1.46818101e-01
      1.60666794e-01 2.03296483e-01 2.55013883e-01 2.55013883e-01
      1.30561605e-01 7.67081827e-02 5.70749864e-02 7.00321645e-02
      2.81389728e-02 6.82255849e-02 7.66538158e-02 1.80290416e-01
      2.53639698e-01 2.11086169e-01 2.53639698e-01 6.78295866e-02
      1.43146785e-02 7.69403577e-02 5.62370643e-02 1.93262529e-02
      4.63230535e-02 2.53639698e-01 2.53639698e-01 2.53639698e-01
      2.53639698e-01 9.42724794e-02 2.32796788e-01 1.05783254e-01
      1.57038063e-01 2.53639698e-01 2.53639698e-01 9.44319963e-02
      6.17010929e-02 1.03145704e-01 1.57265455e-01 1.49991125e-01
      6.21062852e-02 3.58794518e-02 9.35158804e-02 2.53639698e-01
      2.15361267e-01 7.75474533e-02 1.41670436e-01 2.40406170e-01
      7.14833811e-02 5.58269024e-02 6.92686886e-02 1.55589804e-01
      2.82824010e-01 2.77777880e-01 1.24138802e-01 6.40854463e-02
      4.42942381e-02 1.18166953e-02 7.43173622e-03 4.06040139e-02
      1.13578111e-01 2.82824010e-01 2.82824010e-01 1.46240950e-01
      1.22339949e-01 3.08808330e-02 5.16769141e-02 8.10648501e-02
      1.21394195e-01 1.09152578e-01 2.82824010e-01 2.82824010e-01
      2.39024669e-01 1.07274860e-01 6.39183223e-02 2.47488581e-02
      2.53907759e-02 3.00023984e-02 5.85591495e-02 2.82824010e-01
      2.82824010e-01 2.82824010e-01 2.22047538e-01 7.63172805e-02
      3.18247341e-02 2.12866478e-02 3.11154854e-02 1.26224235e-01
      2.88215876e-01 2.28816956e-01 8.53073224e-02 1.05776288e-01
      7.67623037e-02 2.74943113e-01 4.23266105e-02 7.81203508e-02
      1.93154842e-01 2.21290424e-01 6.82858452e-02 5.05329520e-02
      1.37445778e-01 2.66577154e-01 2.29390547e-01 9.52047016e-03
      1.89425349e-02 3.62195782e-02 2.88215876e-01 2.88215876e-01
      1.66438803e-01 2.46383712e-01 2.08782122e-01 2.88215876e-01
      2.40912940e-02 1.45656355e-02 1.41853159e-02 6.93061650e-02
      5.09699211e-02 4.61408086e-02 1.51181951e-01 2.88215876e-01
      3.00966710e-01 2.99458466e-02 3.14754732e-02 6.39753714e-02
      4.08933461e-02 1.42455380e-02 1.86134968e-02 8.71593803e-02
      3.00966710e-01 2.35398978e-01 5.45320176e-02 7.27888271e-02
      7.62634948e-02 4.69831116e-02 6.37316257e-02 8.57299566e-02
      1.12062037e-01 3.00966710e-01 3.00966710e-01 6.68755770e-02
      2.59329919e-02 1.17782662e-02 6.35883166e-03 6.74022641e-03
      1.19507108e-02 6.73184916e-02 3.00966710e-01 3.00966710e-01
      1.31241485e-01 3.00966710e-01 3.00966710e-01 6.61333799e-02
      9.38659757e-02 1.20156854e-01 1.24085739e-01 3.00966710e-01
      3.14278938e-02 5.63904643e-02 1.08892076e-01 1.18951328e-01
      1.76268622e-01 2.13450968e-01 2.47492835e-01 2.09774658e-01
      7.62810633e-02 3.70649658e-02 6.24341965e-02 4.87643033e-02
      7.47310966e-02 1.30876154e-01 2.47492835e-01 2.47492835e-01
      2.47492835e-01 1.23194464e-01 4.62374501e-02 1.57320932e-01
      1.29868031e-01 1.27693877e-01 2.16482639e-01 1.52747065e-01
      1.59035519e-01 1.95924550e-01 8.12324435e-02 5.70774749e-02
      2.47492835e-01 1.29054800e-01 2.03975081e-01 2.47492835e-01
      1.76804304e-01 2.47492835e-01 2.47492835e-01 1.09647803e-01
      1.62555248e-01 5.96879348e-02 2.32757442e-02 1.97807364e-02
      3.76932546e-02 7.16465414e-02 1.24048188e-01 2.31450528e-01
      1.75908238e-01 2.59896010e-01 7.31638372e-02 2.69710366e-02
      1.69296376e-02 1.66486595e-02 1.17200734e-02 3.74943651e-02
      1.02147073e-01 2.59896010e-01 1.57445341e-01 2.59896010e-01
      9.20522735e-02 1.32814169e-01 2.31878415e-01 8.34673047e-02
      1.46145865e-01 2.59896010e-01 1.88522995e-01 2.59896010e-01
      2.59896010e-01 1.16231464e-01 1.89056292e-01 1.91489697e-01
      9.52535421e-02 1.93673313e-01 2.59896010e-01 2.59896010e-01
      2.36620381e-01 1.58128843e-01 6.57767728e-02 4.13365513e-02
      3.21500674e-02 1.17401192e-02 9.13050864e-03 3.26801129e-02
      2.20969096e-01 2.18758851e-01 2.26635844e-01 2.31423929e-01
      2.24855274e-01 7.54900873e-02 3.98825631e-02 1.97171513e-02
      6.80130124e-02 1.94404230e-01 2.36620381e-01 2.36620381e-01
      1.35067031e-01 2.02567399e-01 2.12467983e-01 9.05780122e-02
      7.17222393e-02 9.69420299e-02 2.36620381e-01 2.32554078e-01
      2.36620381e-01 1.86456531e-01 2.22176462e-01 1.85186535e-01
      7.37129748e-02 4.44068871e-02 1.37846842e-01 2.36620381e-01</_>
    <_>
      8.27821642e-02 5.09701446e-02 9.44608301e-02 9.30986926e-02
      7.65986517e-02 6.80335611e-02 8.59555379e-02 6.66364059e-02
      1.06450327e-01 1.45451561e-01 7.23817870e-02 1.63459629e-01
      6.71905354e-02 1.43540084e-01 1.45726919e-01 2.44223028e-01
      1.92503497e-01 2.20315099e-01 1.61220387e-01 1.48047209e-01
      1.84737280e-01 1.53612554e-01 1.66312203e-01 1.66380003e-01
      8.52298215e-02 6.55919015e-02 9.56157893e-02 2.44223028e-01
      2.36403540e-01 2.44223028e-01 2.44223028e-01 2.44223028e-01
      2.44223028e-01 2.44223028e-01 1.92523360e-01 2.44223028e-01
      9.05756429e-02 4.47698496e-02 1.34509414e-01 3.49633247e-02
      1.13838091e-01 1.17008768e-01 2.37908438e-01 2.37908438e-01
      2.17241764e-01 1.29303560e-01 9.71889347e-02 9.14012268e-02
      6.97118565e-02 1.09390341e-01 1.15852386e-01 1.75350919e-01
      2.37908438e-01 2.37908438e-01 1.62582934e-01 1.13183044e-01
      2.37908438e-01 1.74941882e-01 2.37908438e-01 2.37908438e-01
      2.37908438e-01 1.90408215e-01 1.87337920e-01 9.61684659e-02
      5.79539351e-02 1.20068431e-01 1.23471037e-01 2.37908438e-01
      1.50965452e-01 2.15250030e-01 1.17888018e-01 1.51153699e-01
      2.34274074e-01 1.40246883e-01 1.03373118e-01 1.19857915e-01
      1.33732960e-01 1.53016239e-01 1.23029463e-01 1.88870654e-01
      2.34274074e-01 2.34274074e-01 2.31850028e-01 7.38027692e-02
      7.07068890e-02 1.35505363e-01 1.35958731e-01 1.00025386e-01
      6.05869181e-02 2.34274074e-01 2.34274074e-01 1.13899074e-01
      6.83814734e-02 1.53294548e-01 1.98176116e-01 1.40279576e-01
      9.22693014e-02 1.17210343e-01 2.34274074e-01 2.34274074e-01
      2.34274074e-01 6.51175082e-02 1.48340032e-01 2.07598552e-01
      1.48643121e-01 1.25291273e-01 1.50536716e-01 2.34274074e-01
      1.55419335e-01 1.38908699e-01 1.15906276e-01 8.81896913e-02
      1.74096435e-01 1.35275111e-01 5.50929569e-02 4.23016846e-02
      7.22313374e-02 2.88129896e-01 1.77617148e-01 2.43131861e-01
      1.82392508e-01 2.93888181e-01 2.93888181e-01 1.87446848e-01
      8.19482282e-02 1.56632677e-01 1.32342830e-01 1.16333716e-01
      2.62789503e-02 6.79421648e-02 1.39020637e-01 7.99143538e-02
      8.17538649e-02 5.60737178e-02 9.20236781e-02 2.23078787e-01
      8.13457742e-02 3.14098559e-02 9.07605663e-02 2.93888181e-01
      2.93888181e-01 1.08495168e-01 1.14260241e-01 2.90069014e-01
      1.25420943e-01 8.04951638e-02 1.83135122e-01 1.63260207e-01
      2.81347424e-01 2.23749027e-01 1.24113731e-01 6.40449151e-02
      9.84079316e-02 1.51858523e-01 8.39770064e-02 1.18590496e-01
      1.00886784e-01 2.53693789e-01 8.24437216e-02 4.87021096e-02
      3.93411666e-02 1.37310311e-01 2.81347424e-01 5.43270856e-02
      7.56060481e-02 7.18308240e-02 2.81347424e-01 2.25985646e-01
      5.56901358e-02 1.26571551e-01 2.81347424e-01 2.81347424e-01
      2.43339971e-01 2.05970317e-01 4.71520387e-02 1.10421538e-01
      7.27656633e-02 2.26077903e-02 8.01819414e-02 2.81347424e-01
      1.71694309e-01 1.75981447e-01 6.40278012e-02 1.15102686e-01
      1.65846333e-01 7.52272904e-02 4.28801812e-02 7.16517940e-02
      1.67093545e-01 1.43636391e-01 1.80712700e-01 4.67016771e-02
      1.95957929e-01 2.42391467e-01 1.25389993e-01 9.86665562e-02
      1.15419030e-01 1.22200795e-01 2.42391467e-01 2.42391467e-01
      2.42391467e-01 1.52953967e-01 1.59034610e-01 1.62027076e-01
      1.02244735e-01 1.16946936e-01 2.42391467e-01 1.39581949e-01
      2.07433671e-01 1.80874243e-01 2.42391467e-01 2.22703665e-01
      1.92907661e-01 1.39912918e-01 1.02935515e-01 2.00852200e-01
      1.05285823e-01 1.25573546e-01 6.37827516e-02 1.60676077e-01
      1.52444854e-01 1.17083229e-01 1.41399369e-01 7.99264759e-02
      1.00694254e-01 2.38642737e-01 1.39184311e-01 4.97627072e-02
      1.93422481e-01 2.38642737e-01 2.38642737e-01 8.37670788e-02
      1.44579470e-01 2.38642737e-01 1.03490137e-01 9.54071432e-02
      1.36130348e-01 1.85070634e-01 1.75475329e-01 1.01506375e-01
      9.67602432e-02 1.44500390e-01 1.54254079e-01 2.38642737e-01
      2.38642737e-01 2.30715618e-01 2.38642737e-01 2.38642737e-01
      1.33982450e-01 9.63121355e-02 1.39598772e-01 2.38642737e-01
      2.69497544e-01 1.14248142e-01 4.72723134e-02 8.10668096e-02
      1.78507999e-01 1.15641080e-01 7.05782622e-02 1.05126902e-01
      2.69497544e-01 2.69497544e-01 2.35181421e-01 1.69776544e-01
      9.41719562e-02 5.58892712e-02 3.46894190e-02 6.85254633e-02
      6.49051666e-02 2.69497544e-01 2.69497544e-01 2.43555188e-01
      1.02977268e-01 1.68009937e-01 9.77822691e-02 4.06171158e-02
      6.65589944e-02 7.03737438e-02 2.69497544e-01 2.69497544e-01
      2.24552602e-01 1.01914860e-01 1.65385202e-01 6.84745982e-02
      3.39758433e-02 7.21284673e-02 9.46276635e-02 2.69497544e-01
      2.40606293e-01 2.40606293e-01 2.40606293e-01 1.51907727e-01
      9.61472169e-02 1.23293750e-01 1.47723705e-01 1.26211479e-01
      2.40606293e-01 1.97533652e-01 1.27433494e-01 2.40606293e-01
      2.05371767e-01 1.28918365e-01 1.97632656e-01 1.84043214e-01
      1.47224545e-01 2.15384841e-01 2.40606293e-01 1.70995951e-01
      1.70734972e-01 1.34398475e-01 6.99131936e-02 7.07467943e-02
      9.25444663e-02 1.33083731e-01 1.65992409e-01 1.75165936e-01
      7.51755312e-02 1.18038937e-01 7.19811991e-02 1.41070664e-01
      1.21539906e-01 1.30263910e-01 2.02592850e-01 1.47008821e-01</_>
    <_>
      1.99737653e-01 1.46096304e-01 1.68257162e-01 1.93183437e-01
      2.33181119e-01 9.44923162e-02 1.08266316e-01 6.26460165e-02
      8.13360810e-02 1.73339918e-01 1.11301579e-01 2.42060617e-01
      2.42060617e-01 2.36154392e-01 1.37958452e-01 1.29193783e-01
      1.47017449e-01 1.01216845e-01 1.24924526e-01 1.41785100e-01
      1.61984771e-01 1.26900345e-01 2.05467001e-01 1.56356260e-01
      1.34151682e-01 1.43679991e-01 1.22040473e-01 9.03754532e-02
      2.96196509e-02 1.23721778e-01 1.73564866e-01 2.42060617e-01
      2.42060617e-01 2.25533709e-01 2.42060617e-01 1.51002899e-01
      5.90767562e-02 1.14205591e-01 2.47185975e-01 1.55579314e-01
      8.79025534e-02 7.97948316e-02 1.56684682e-01 1.13352217e-01
      8.95626098e-02 4.15771641e-02 1.57737583e-01 1.55512050e-01
      2.47185975e-01 2.47185975e-01 2.22094238e-01 2.47185975e-01
      1.08646184e-01 5.88350222e-02 5.45346811e-02 6.02171794e-02
      9.01446417e-02 1.86283797e-01 2.47185975e-01 2.47185975e-01
      1.14375785e-01 1.69570506e-01 1.01003714e-01 1.95164651e-01
      2.27313265e-01 2.47185975e-01 2.47185975e-01 2.47185975e-01
      1.28603846e-01 5.88913225e-02 5.69779985e-02 1.32303804e-01
      2.64216475e-02 8.79451558e-02 1.12883791e-01 2.68476456e-01
      2.68476456e-01 2.68476456e-01 2.63615131e-01 7.53816888e-02
      3.09569165e-02 3.18412893e-02 1.49802044e-02 3.03106979e-02
      5.60465902e-02 1.70118004e-01 1.64929658e-01 1.37879446e-01
      4.97917868e-02 3.89142185e-02 2.68476456e-01 2.07590163e-01
      2.25562871e-01 2.68476456e-01 2.68476456e-01 6.83309436e-02
      3.20033468e-02 4.66086157e-02 2.59296447e-01 2.68476456e-01
      5.14660925e-02 5.07324301e-02 9.00590643e-02 1.67747557e-01
      3.95107120e-02 6.01704046e-02 1.52315900e-01 2.68476456e-01
      1.26498133e-01 7.62798041e-02 1.12806723e-01 8.68334845e-02
      2.70224869e-01 2.18528584e-01 9.34882835e-02 1.26084208e-01
      1.03151262e-01 3.99411619e-02 2.35865116e-02 5.03233187e-02
      7.37817213e-02 2.99725831e-01 2.99725831e-01 2.13819131e-01
      1.72851324e-01 6.31185323e-02 9.47040990e-02 3.23437154e-02
      1.04071438e-01 1.27753869e-01 2.03824669e-01 1.70782611e-01
      1.48090303e-01 1.26119435e-01 1.16198279e-01 4.68434803e-02
      1.70720834e-02 6.04319945e-02 1.03818476e-01 2.99725831e-01
      2.99725831e-01 2.99725831e-01 2.69054353e-01 1.07033998e-01
      4.39851582e-02 1.15648592e-02 1.70045290e-02 7.21372962e-02
      3.02024573e-01 2.72213370e-01 9.74085331e-02 8.57565403e-02
      6.41599447e-02 3.02024573e-01 6.36171997e-02 5.14433831e-02
      1.02342844e-01 2.55347878e-01 1.08075008e-01 6.48042187e-02
      9.48556960e-02 2.39070833e-01 2.49225572e-01 2.19427254e-02
      8.01540632e-03 2.16778442e-02 2.37520292e-01 2.91744679e-01
      2.66836852e-01 1.86570972e-01 1.59739926e-01 3.02024573e-01
      6.59321770e-02 3.22131859e-03 1.01217804e-02 6.57183900e-02
      8.42334107e-02 5.24562523e-02 1.01343349e-01 3.02024573e-01
